P31	-0.073467	-0.132227	0.034173	-0.032769	0.008289	-0.107088	-0.031712	-0.039581	0.101882	-0.106961	-0.053441	0.068202	-0.045584	-0.140448	-0.079402	0.001022	0.059921	-0.062510	0.102848	0.077947	-0.063644	0.050070	-0.019180	0.064456	-0.052222	0.071078	-0.036413	-0.039235	0.137947	0.067378	-0.137468	0.103482	0.121755	-0.006587	0.063077	-0.024954	-0.031300	-0.056833	-0.139115	-0.053570	0.165815	-0.022143	0.006561	-0.108691	-0.149139	0.080943	0.054542	-0.034564	0.082343	-0.095843	-0.068758	0.013850	-0.025589	-0.012451	0.116367	-0.066981	-0.006472	0.136078	-0.057084	-0.066427	-0.035916	-0.028447	-0.070395	-0.052364	-0.040038	0.037342	-0.073347	0.112529	0.106537	0.107426	0.086297	0.085833	0.054393	0.053187	0.066242	0.058507	-0.047180	-0.086089	0.050148	0.053491	-0.042370	-0.110435	-0.058929	0.063987	-0.037393	-0.057942	-0.032128	0.141226	-0.106979	0.072183	-0.045641	-0.050068	-0.053686	-0.045389	-0.037017	0.117190	-0.063597	-0.056910	0.058387	-0.114056	
P21	-0.078436	0.108589	-0.049429	-0.131355	0.049300	-0.094605	-0.101469	0.127802	-0.081245	0.113759	-0.171865	0.049044	0.141462	0.117907	0.040574	-0.057788	-0.146715	-0.085228	0.020211	-0.121010	-0.100422	-0.081288	0.031696	-0.060593	-0.072303	0.139442	-0.133374	-0.120222	0.050400	0.119134	-0.082276	0.050498	-0.108097	0.045905	0.118079	0.069211	-0.049801	-0.106901	0.133158	-0.065444	-0.085254	0.040706	0.007894	0.034556	0.139081	0.025119	0.122081	0.154464	0.099593	-0.040400	0.075233	0.096659	0.032061	-0.154013	0.085069	-0.144027	-0.069370	0.079479	0.090121	-0.154897	-0.127340	-0.031645	-0.093840	0.123652	-0.134066	0.066089	-0.159245	0.069276	0.074938	-0.129573	0.076426	-0.144846	0.147408	0.106457	-0.079138	0.081598	-0.132508	0.102217	0.117162	-0.064613	-0.120491	-0.075478	0.013671	-0.056833	0.086815	-0.111679	0.051020	0.094203	-0.092261	-0.147404	-0.151203	0.074341	-0.030571	-0.137183	0.045598	-0.151155	-0.066223	0.057489	0.130188	-0.054801	
P106	-0.052137	0.052444	-0.019886	-0.152309	0.014144	-0.180491	-0.132198	0.063082	0.085229	0.114965	0.023285	0.074741	-0.049949	-0.082051	-0.159896	0.035493	-0.113929	-0.111878	-0.139555	-0.106166	-0.011966	0.154562	-0.096405	0.131268	-0.068482	0.185240	-0.072894	-0.114885	-0.056082	0.112026	0.048216	0.098032	-0.098028	-0.106606	0.078594	-0.102013	-0.001059	-0.145055	0.000003	-0.047816	0.079029	-0.078351	-0.016361	-0.000218	-0.038627	0.057308	0.036923	-0.073602	-0.072402	0.001785	-0.002824	-0.060708	-0.002136	-0.017358	0.059936	-0.133305	-0.034796	-0.075657	0.147320	-0.133039	-0.149887	0.052375	0.024344	0.050036	-0.146324	0.075327	-0.135969	0.031892	0.049475	-0.106037	0.088477	-0.185415	0.105080	0.107440	-0.028200	-0.121917	-0.165206	0.026541	0.125522	0.080844	-0.178644	-0.060746	-0.078724	-0.009305	0.088131	-0.097797	-0.155246	-0.030237	-0.017188	0.070897	-0.088902	-0.058958	-0.032021	-0.147213	0.082776	-0.169705	0.122445	-0.054737	0.055321	0.070961	
P735	-0.051398	0.056219	0.068029	-0.137717	-0.030050	0.061566	-0.103184	-0.074124	-0.118975	0.122100	0.090664	0.050602	-0.023321	0.135801	0.082776	0.134691	-0.093377	-0.100187	0.060942	0.058473	0.065260	-0.049564	0.013162	-0.047667	-0.054335	0.123371	-0.145068	0.015066	0.045329	0.131864	0.062462	-0.106206	-0.117788	-0.050399	0.019886	-0.046332	0.082650	0.060583	0.169631	0.108123	-0.030897	0.046386	-0.014420	-0.053038	0.157436	-0.021491	0.087635	-0.051152	0.054433	0.121686	0.037487	0.044515	-0.079680	-0.114405	0.029875	-0.124201	-0.094803	0.017489	0.111024	-0.108676	0.011377	0.143746	-0.180618	-0.052341	-0.118239	-0.081315	-0.111308	0.058716	-0.111563	-0.222551	-0.019004	-0.102315	0.269483	-0.023461	0.046179	0.050954	-0.020268	-0.085623	-0.011426	-0.110763	-0.158052	0.104254	-0.097153	0.060086	-0.050420	-0.121439	-0.112373	-0.028001	0.076174	-0.132399	-0.096461	-0.092234	0.056870	0.013640	0.042696	0.013683	-0.021127	-0.189257	0.055315	0.101863	
P108	0.091231	0.022526	0.059349	-0.141853	0.035025	-0.111040	-0.127337	0.047645	-0.172328	0.090933	0.022216	0.079914	0.043736	-0.096588	-0.242773	-0.039824	-0.078472	-0.190807	-0.075510	-0.011143	-0.004291	-0.109142	-0.055437	0.139692	-0.032522	0.124695	-0.054761	-0.046256	-0.115983	0.098595	-0.087121	-0.029367	-0.108338	-0.021720	-0.028068	0.029053	-0.128703	-0.103341	-0.139387	0.134218	0.207785	-0.022484	0.049616	0.144433	-0.102246	-0.064737	0.094036	0.059295	-0.120209	0.079042	0.105340	0.083430	-0.007747	0.033792	-0.025764	-0.043842	0.013634	-0.119388	0.001556	-0.057961	-0.081745	0.092388	-0.053616	0.095690	-0.001889	-0.154143	-0.177890	-0.131440	-0.219218	-0.111252	-0.104790	0.067291	0.130789	0.144343	-0.105937	-0.070367	-0.152791	-0.079241	0.008933	0.107746	0.076368	-0.071356	-0.056110	-0.030554	-0.087335	-0.108328	-0.039597	0.074101	0.094331	-0.088390	0.026855	-0.046994	-0.056248	-0.146538	0.121375	-0.211757	0.077591	-0.002200	-0.053880	0.140873	
P101	-0.038450	0.053671	-0.063569	-0.150071	0.076725	0.077381	0.074004	0.058924	-0.070409	0.138669	0.016776	0.098949	-0.121386	-0.101735	-0.145386	0.114508	-0.135644	-0.150908	-0.086748	0.016879	-0.066033	-0.091203	-0.073095	0.152311	-0.067878	0.143223	-0.068923	-0.083542	0.081431	0.125569	-0.121332	0.087998	0.039702	-0.080041	0.149063	-0.095954	-0.037331	-0.111105	-0.121092	-0.050126	0.073748	0.040368	0.021378	-0.025196	-0.139372	0.086121	0.074355	0.029257	-0.022436	-0.098500	-0.118194	-0.050779	0.000845	-0.124732	0.078069	-0.121473	-0.111983	-0.078645	0.133904	-0.113484	-0.110710	0.100830	0.013339	0.086549	-0.135170	-0.012711	-0.184424	0.147431	0.107744	-0.113939	0.170511	-0.148978	0.123587	0.094974	-0.116513	-0.092272	-0.125306	-0.015741	0.050106	0.063696	-0.150162	-0.102782	0.101328	0.052759	0.086079	-0.063312	-0.112057	0.144646	0.025701	0.098996	-0.086532	-0.112499	0.093430	0.062762	0.094013	-0.185905	0.136957	-0.040049	-0.049155	0.077970	
P69	0.070871	0.017892	0.071605	-0.177944	0.019506	0.022656	-0.145745	0.043527	-0.143017	0.080599	0.023205	0.008394	-0.003546	-0.091106	-0.190312	-0.062092	-0.043075	-0.220900	-0.046273	-0.036911	0.002575	-0.075656	-0.053835	0.009398	-0.028200	0.152947	-0.070910	-0.037095	-0.134213	0.110800	-0.040207	-0.050094	-0.071902	-0.021940	-0.033516	0.071785	-0.092026	-0.111100	-0.110646	0.101400	0.221573	-0.072936	0.019550	0.116304	-0.061692	-0.052998	0.120249	0.039449	-0.129179	0.125337	0.049853	0.074947	-0.003650	-0.012691	-0.032586	-0.055186	0.012156	-0.110493	-0.005427	-0.109890	-0.153042	0.146040	-0.040372	0.202817	-0.016268	-0.241364	-0.190592	-0.129366	-0.225908	-0.100757	-0.095691	0.036893	0.018483	0.134962	-0.078153	-0.051916	-0.201161	-0.083492	0.055444	0.059844	0.056015	-0.028959	-0.081050	-0.025824	-0.055690	-0.016661	-0.022006	0.069855	0.058614	-0.104168	0.010609	-0.065635	-0.061919	-0.104571	0.171008	-0.221741	0.054645	-0.001462	-0.016705	-0.006781	
P27	-0.001034	-0.071413	0.078409	-0.135587	-0.023540	-0.148491	-0.032054	-0.104719	0.037553	0.131580	0.068972	0.038243	-0.021492	0.022270	-0.149116	0.051431	-0.052678	-0.314631	0.017771	-0.124690	-0.054947	-0.024448	-0.101791	0.212046	0.028584	-0.061358	-0.029263	-0.044227	0.083212	0.122351	-0.067070	-0.049674	0.077832	-0.016649	0.002230	0.006867	-0.048225	-0.118579	-0.105043	0.113636	0.001790	0.005330	-0.002033	-0.010978	-0.122867	-0.013791	-0.036316	0.098075	-0.008298	0.111850	-0.171301	0.068268	0.013500	-0.015672	-0.017321	0.023129	-0.035521	-0.043583	0.085217	-0.133688	-0.177682	0.121344	0.024174	0.094669	-0.049564	-0.181461	-0.161248	-0.066431	-0.105370	-0.116052	-0.058926	-0.161723	0.107090	0.122637	-0.058192	-0.102837	-0.111260	0.121936	0.093649	0.019587	-0.016998	-0.040438	0.011555	0.082910	0.064480	-0.097547	-0.078692	0.108435	-0.035020	-0.116789	-0.096049	0.005482	0.003258	-0.092210	-0.138745	-0.211339	0.049551	-0.103830	-0.055104	0.155658	
P19	0.000880	-0.047513	0.055876	-0.066818	-0.040318	-0.134065	0.042790	-0.061842	0.025320	0.082933	0.003401	0.070724	0.043486	-0.009335	-0.127014	0.034362	-0.090569	-0.057555	-0.013524	-0.065492	-0.049082	0.081312	-0.070756	0.233460	0.038340	-0.023851	-0.009380	-0.058409	0.029845	0.106435	-0.011845	-0.065614	0.009084	-0.071540	-0.049669	0.054509	-0.071593	-0.101372	-0.045106	0.084416	-0.054100	-0.105142	0.061792	-0.014693	-0.090853	-0.022650	-0.016288	0.076650	-0.003253	0.102023	-0.221816	0.061719	0.052046	-0.062654	-0.048482	0.007732	-0.038324	-0.084377	0.096411	-0.165850	-0.121666	0.091667	0.030900	0.072653	-0.066837	-0.146444	-0.136078	-0.079430	-0.071377	-0.127032	-0.071946	-0.148041	0.087610	0.112100	-0.066772	-0.057500	-0.071635	0.092982	0.059767	-0.077822	0.011771	0.090371	0.000695	0.059081	0.031807	-0.112810	-0.057349	0.036470	-0.053819	-0.102074	-0.111388	0.029662	0.026527	-0.105318	-0.190160	-0.215584	0.076067	-0.069103	-0.045963	0.160296	
P1412	0.030544	0.149371	0.015236	0.036643	0.015171	-0.155142	-0.137766	0.043473	-0.219642	0.151052	0.070140	0.119743	-0.087779	-0.085418	-0.021801	0.186938	0.022273	-0.180202	-0.151515	0.021993	-0.129248	-0.067886	-0.063067	0.021371	-0.066071	0.097698	-0.051007	-0.002142	-0.068477	0.135100	-0.044051	0.048502	0.030675	-0.108851	0.156234	-0.101348	-0.115710	-0.061219	-0.062512	0.157812	-0.105375	0.060130	-0.003426	0.038893	0.143512	0.024635	0.142836	0.039286	-0.064017	0.013223	-0.090620	0.141211	-0.004723	-0.114485	-0.124080	-0.051003	-0.167028	0.075247	0.149424	-0.017866	-0.152015	0.076536	-0.030547	0.134534	-0.131169	-0.154570	-0.180139	-0.064282	0.021040	-0.021176	-0.067829	-0.049304	0.074953	0.098672	-0.107272	-0.115907	-0.134876	-0.096005	0.052559	-0.156583	0.003129	-0.039603	-0.176605	0.125426	0.031877	-0.037917	0.004247	0.047984	-0.040324	0.000251	-0.186280	-0.134058	-0.069841	0.033493	0.119225	-0.085768	0.152216	-0.043512	-0.034587	-0.028415	
P1343	0.110083	0.102304	-0.095374	0.085199	0.101029	0.124166	-0.138349	0.090198	-0.083513	0.116859	0.097862	-0.086173	-0.006184	0.128389	-0.124222	0.124444	0.096356	-0.146269	-0.051157	-0.128892	0.121885	0.084653	-0.105397	-0.053347	0.019331	0.112534	-0.089285	0.089781	-0.023668	-0.059870	0.137525	0.063337	-0.154905	0.081217	-0.068139	0.066018	-0.096918	-0.099642	0.137144	-0.112304	0.132641	0.070677	0.134637	0.087357	0.126097	0.066995	-0.035696	0.094526	-0.086400	-0.105917	0.099986	-0.106647	0.074104	0.102826	-0.144895	0.110826	-0.081019	0.078282	-0.052152	0.003146	0.081888	0.128844	-0.117187	0.107868	0.093180	0.085197	0.099613	0.105454	-0.128186	-0.098986	0.109635	-0.122718	0.117350	-0.096323	0.121969	0.083365	-0.017703	0.058609	0.080795	-0.106636	-0.080690	0.112634	-0.076228	-0.113486	-0.086538	0.101047	-0.130483	-0.083210	0.110707	-0.086574	0.105572	0.077413	-0.076894	0.090772	0.055654	-0.132116	-0.125693	0.029275	0.103218	0.151768	
P20	0.013021	-0.046431	0.082700	-0.073993	-0.033114	-0.147169	0.021658	-0.066601	0.019064	0.089603	-0.017237	0.027309	0.081618	-0.010069	-0.168078	0.058438	-0.063150	-0.179320	0.001360	-0.069564	-0.044827	0.097993	-0.095521	0.263281	0.079081	-0.025622	-0.004943	-0.060781	0.038729	0.122693	-0.003813	-0.033365	0.028013	-0.083955	-0.056562	0.062352	-0.076640	-0.097833	-0.062021	0.042303	-0.069566	-0.084406	0.067017	0.006687	-0.088411	-0.017762	-0.075846	0.109779	0.028448	0.100520	-0.243629	0.025832	0.045418	-0.048539	-0.071047	-0.008271	-0.043176	-0.110687	0.077961	-0.126519	-0.108647	0.096337	0.004905	0.086410	-0.057558	-0.166470	-0.033615	-0.115992	-0.222552	-0.113810	-0.090713	-0.237756	0.076612	0.066039	-0.073588	-0.114091	-0.093719	0.116392	0.057920	-0.087444	0.028004	0.106936	0.018777	0.094791	0.063297	-0.097103	-0.073483	0.043259	-0.043884	-0.092485	-0.094679	0.047234	0.030437	-0.106932	-0.206837	-0.194704	0.105680	-0.079492	-0.065565	0.247732	
P509	0.141286	0.030367	0.109865	-0.124899	0.103993	-0.101235	-0.070213	-0.101388	-0.140524	0.148119	-0.056169	0.041030	0.072890	0.051784	-0.187770	0.104273	-0.122812	-0.066342	0.138965	-0.125111	-0.175919	0.081615	0.007558	0.141112	0.068750	-0.032063	-0.114301	-0.122821	0.036056	0.122585	-0.056804	0.103689	0.082789	-0.129972	0.083253	-0.051307	0.105559	-0.131119	-0.106154	-0.129601	-0.092544	-0.001705	0.116474	0.042429	-0.054382	-0.091276	0.000552	0.055465	-0.023886	0.136728	-0.138125	-0.088688	-0.107875	-0.001483	0.110456	-0.077638	0.102333	-0.107262	0.104002	-0.153185	-0.119095	0.109986	0.020766	0.132064	-0.121881	-0.144697	-0.065522	0.089400	0.087129	0.037239	0.117956	-0.140766	-0.045260	0.040611	-0.057117	-0.033678	-0.145176	0.086190	0.130828	-0.073911	0.091152	0.072651	-0.084046	0.021059	0.064069	-0.207507	-0.025439	0.139385	0.074844	-0.041078	-0.107275	-0.094754	-0.078616	-0.126833	0.005674	-0.126836	0.028439	-0.026285	0.108185	0.118449	
P1196	0.081161	-0.041800	0.096150	-0.105770	-0.056221	-0.122835	0.116583	-0.100970	-0.114518	0.119491	-0.008268	0.011709	0.062396	0.068689	-0.164448	0.031853	-0.042476	-0.086435	0.142508	-0.089591	-0.198049	0.078135	-0.085236	0.151428	-0.077831	-0.083402	-0.127910	-0.104982	-0.076009	-0.004266	0.043748	0.128385	-0.090800	0.060418	0.123255	-0.107344	0.097210	-0.013496	-0.199784	-0.086831	-0.145976	0.020294	0.089463	0.059514	-0.021642	-0.081658	-0.051810	-0.069645	0.101570	-0.059529	0.004014	0.080720	-0.144240	-0.083590	0.097624	-0.096800	0.093009	-0.102177	0.101735	-0.148332	-0.131861	0.149439	0.057091	0.123571	-0.190503	-0.117423	-0.095360	0.164272	-0.048598	0.076376	0.142959	-0.139534	-0.010386	0.124157	-0.055641	0.093935	-0.127027	0.109500	0.129898	0.072146	0.063742	-0.045428	0.068259	0.146028	0.070038	-0.151985	-0.091283	0.112193	-0.088564	-0.109241	-0.008940	-0.050721	-0.041826	-0.137016	0.088093	-0.072585	-0.057296	0.044787	0.097688	-0.055178	
P734	0.039076	-0.021949	0.016378	-0.028835	0.034585	-0.118144	-0.167637	-0.022080	-0.172882	0.125284	-0.053321	-0.004830	0.090316	0.123738	0.113971	0.106472	0.007306	0.013963	0.047338	-0.067584	0.042725	-0.136453	-0.119501	0.090047	0.078883	0.203373	-0.197363	-0.058043	0.051531	0.127695	0.146221	0.028902	-0.211247	0.014939	-0.021311	0.043574	0.116968	0.057589	-0.032926	-0.034648	-0.038259	-0.086075	0.093718	0.019091	0.007723	0.056274	0.157580	0.033812	0.041352	0.172632	-0.069191	0.121836	0.038380	-0.156589	-0.171332	-0.014715	-0.145629	-0.109469	0.168408	0.025500	-0.086107	0.133405	-0.181802	0.078054	-0.003358	0.006261	-0.005189	0.032193	-0.106716	-0.124425	0.081681	-0.017197	0.131105	-0.060758	-0.024433	0.096654	0.042131	-0.150096	0.154152	-0.121494	-0.212950	0.001500	0.004194	0.080617	0.019633	-0.010401	-0.133146	-0.111782	0.099817	-0.138309	-0.160894	-0.115810	-0.104553	-0.103201	0.036772	0.005635	0.056244	-0.137250	-0.022005	-0.006641	
P17	-0.066804	-0.157604	0.013737	-0.154449	0.033526	-0.188399	-0.136264	-0.152350	0.156545	0.032248	0.100460	-0.053597	-0.172029	0.111622	-0.104407	-0.006519	0.051231	0.107462	0.078778	-0.077652	0.013106	-0.191202	-0.047271	0.168027	0.004169	-0.135645	0.019436	0.002111	0.137466	0.020602	-0.072013	0.014783	0.118058	0.061689	0.047722	-0.038280	0.074346	-0.028110	-0.146072	0.018160	0.192117	0.098545	-0.102615	-0.149351	-0.204403	-0.002734	-0.160369	0.040874	0.118081	0.032828	-0.231127	0.003497	-0.039643	0.051269	0.077508	0.064796	-0.006020	0.058207	0.011748	-0.049189	-0.070505	0.038328	0.091545	0.076314	0.023435	-0.140542	-0.001098	-0.004248	-0.144270	-0.014452	0.007744	-0.109086	0.029018	0.003693	0.067865	-0.015736	-0.019328	0.213341	0.005421	0.134922	-0.049558	-0.158151	0.134445	0.005642	0.117320	0.009116	-0.000386	0.139400	-0.179130	0.014761	0.024940	0.101863	0.076527	-0.011949	-0.222177	-0.061296	-0.062840	-0.028299	0.021267	0.092867	
P641	-0.016671	-0.119618	-0.015854	-0.106268	-0.075267	0.072403	0.046010	-0.120632	0.126915	0.114585	0.109815	-0.002664	-0.081276	-0.076964	-0.006102	0.075247	-0.141470	0.054159	-0.077970	-0.147484	-0.081369	0.051998	0.042584	0.164726	-0.095492	0.049250	-0.083308	-0.124705	-0.040374	-0.141588	0.014609	0.093670	-0.024602	0.047189	0.054954	-0.024424	0.131496	-0.116784	-0.091559	0.157581	0.084079	-0.040791	-0.177574	-0.072881	-0.114247	0.078140	-0.072124	0.047567	-0.153233	-0.107832	-0.203940	-0.015582	0.007743	0.008863	0.097893	-0.095820	-0.079072	-0.100187	0.129272	-0.142902	-0.138119	0.009959	-0.032602	0.120000	0.131589	-0.210989	-0.197489	-0.080906	0.113061	-0.094811	0.113150	-0.025580	0.092232	0.075726	0.034234	0.114597	-0.018327	-0.021733	0.119153	-0.009460	-0.087884	0.008693	0.124503	0.031955	-0.011428	-0.088519	0.024547	-0.076879	-0.144040	0.068211	-0.098386	-0.125863	-0.080570	-0.077344	-0.227626	-0.168980	-0.026339	-0.083653	0.123398	-0.051225	
P463	0.034400	0.075337	-0.022096	-0.171531	0.001745	0.180335	-0.029880	0.156485	-0.182038	0.139774	0.023223	0.054534	0.029093	-0.061929	-0.157669	-0.028380	-0.110333	-0.162289	-0.033266	0.122708	-0.081916	0.086467	0.025621	0.194824	-0.033870	0.153864	-0.016363	-0.035922	-0.075915	0.117330	0.099490	-0.026382	-0.174821	-0.005009	-0.022071	-0.001224	-0.103242	0.118792	0.171275	0.066475	0.171724	-0.056217	0.041116	0.110612	0.160537	-0.029752	0.005360	0.008844	0.028475	-0.080834	0.006305	0.070994	0.064846	-0.031422	0.037535	0.012287	0.006774	-0.159592	0.012917	0.155055	0.125213	-0.118094	-0.072599	0.146046	0.025587	0.158201	-0.162100	0.121575	0.161416	-0.106474	-0.054106	0.168125	0.004534	0.066321	-0.161840	0.061156	-0.139567	0.016907	0.037626	0.022913	-0.128484	0.164808	-0.046286	-0.104854	-0.009738	-0.020577	-0.058254	-0.118917	0.087358	-0.037070	-0.036912	0.012354	-0.087121	-0.165250	0.132680	0.098627	0.010904	0.004415	0.002220	-0.127550	
P131	-0.122830	-0.146712	0.010542	-0.028854	0.000152	-0.178342	0.020467	-0.158293	0.149955	0.024734	0.041225	0.021268	0.051558	-0.043018	-0.075912	0.007903	-0.003442	0.091881	0.046106	-0.023255	-0.020266	-0.209751	-0.016637	0.043173	0.009436	0.140090	0.013061	0.014331	0.157730	0.018421	-0.016362	-0.002384	0.006665	-0.013626	-0.020344	0.146287	-0.161227	-0.028346	-0.114560	0.025396	-0.287130	0.145060	0.017095	-0.119804	-0.182088	0.004035	-0.208127	0.025414	0.193236	0.022186	-0.332456	0.011932	0.006707	-0.015030	0.017208	0.019943	-0.007996	-0.025363	0.016190	0.254815	-0.024079	0.015703	0.081543	0.016092	-0.012107	-0.034925	-0.030797	-0.018862	-0.018066	-0.032974	-0.020968	-0.030383	0.043309	0.021962	-0.000492	-0.025237	-0.017092	0.183809	0.031916	-0.029052	-0.001391	-0.096351	0.010377	0.023841	0.097965	-0.017267	-0.021077	0.120648	-0.207797	-0.014853	-0.013586	0.113518	0.074968	-0.026857	-0.354143	-0.027823	0.004727	-0.023017	-0.014431	0.040104	
P159	-0.095321	-0.141079	-0.011192	-0.077814	-0.041324	-0.186082	0.172587	-0.147369	0.141624	0.050501	-0.085937	-0.034180	-0.069614	-0.087381	-0.124767	0.049396	0.011928	-0.158438	0.068131	0.008180	0.026998	0.170082	0.033017	0.160843	0.106295	-0.105187	0.038867	0.014582	0.143637	0.020765	0.052639	-0.041002	0.157547	-0.115939	-0.011501	0.108057	-0.084546	0.002738	-0.127107	0.013386	-0.224498	-0.056727	-0.059565	-0.159235	-0.167065	0.027050	-0.130725	0.059620	0.108804	0.031074	-0.213421	-0.000757	0.076506	-0.079682	-0.011541	0.054361	-0.008653	-0.002861	0.086110	-0.173516	-0.002524	0.013567	0.073678	0.029013	-0.025362	-0.101502	0.038217	-0.024225	-0.001185	0.005659	-0.007484	-0.206550	0.169342	0.007976	-0.001193	0.033766	-0.035251	0.135317	0.002373	-0.142693	0.055689	0.157132	0.120495	0.138150	0.110012	-0.002340	-0.019917	0.148295	-0.177656	0.022727	-0.118680	-0.013801	0.115522	-0.000156	-0.237837	-0.013063	0.001679	-0.025503	-0.054517	0.097242	
P39	-0.051900	0.060340	-0.058713	-0.164586	-0.062961	-0.249929	-0.160607	0.070793	0.040375	0.109103	-0.051909	0.038650	-0.029320	-0.071069	-0.164860	-0.024639	-0.071338	-0.137192	-0.182797	-0.110074	-0.079985	0.160305	-0.081783	-0.064479	-0.007924	0.218930	-0.003733	-0.082138	0.042759	0.108353	0.058854	0.056213	-0.175962	0.017150	-0.047278	-0.160117	-0.064157	-0.166468	0.059231	0.061848	-0.055940	-0.064394	0.064759	0.071912	0.045675	-0.031296	0.074778	-0.037918	-0.085379	0.090562	-0.066499	-0.050522	-0.101367	-0.035529	-0.046896	-0.212281	0.033334	-0.088141	0.130791	-0.111657	-0.181032	0.121464	-0.047992	-0.010594	-0.148172	0.052904	-0.156975	-0.063438	0.030171	-0.145982	-0.012518	-0.193455	0.088378	0.098223	-0.058640	-0.078585	-0.159863	0.039346	0.094256	0.050843	0.043375	0.089100	-0.054256	0.076972	-0.018644	0.068811	-0.162261	-0.019335	-0.051041	-0.040093	0.060325	0.026985	-0.146237	-0.128962	0.076174	-0.000888	0.174598	-0.068152	-0.055273	0.036611	
P3373	-0.008519	0.001118	0.008670	0.000638	0.006659	0.006767	-0.005419	0.004025	-0.006626	0.002276	0.004286	-0.002899	-0.004462	-0.002705	0.002116	-0.001836	-0.003812	-0.001495	-0.007528	-0.016990	0.003525	-0.007176	-0.000056	0.001406	-0.007969	0.000309	0.002855	-0.002429	0.001349	-0.006919	-0.001514	0.003108	0.001883	0.003318	0.000909	-0.000659	0.003268	0.002934	-0.010115	0.000555	-0.006723	0.015988	-0.002765	-0.011780	-0.004135	0.005990	-0.012033	0.010448	0.014779	-0.001156	-0.005117	-0.007117	-0.000543	0.004053	0.000597	-0.001908	-0.004528	0.010103	0.012928	-0.000561	0.007915	-0.027382	-0.004661	-0.004467	0.011279	0.000980	0.005765	-0.004057	0.010220	0.009903	-0.005251	-0.006691	0.004001	0.004038	0.002938	-0.005397	0.002657	-0.005968	0.009890	0.010703	-0.000970	-0.013428	0.001290	0.000314	-0.008705	-0.000496	0.012205	-0.005352	-0.000875	-0.000943	-0.013429	0.002761	0.005883	0.008955	-0.006587	-0.003999	-0.000590	-0.004006	0.001182	-0.001311	
P551	-0.039375	-0.051916	0.053481	-0.168893	-0.106668	-0.156885	0.024774	-0.057532	-0.001115	0.080735	-0.017365	0.011462	-0.027093	-0.068173	-0.213991	0.068052	-0.054946	-0.150397	0.042560	0.017836	-0.026884	0.103289	-0.070305	0.222359	0.053177	0.057855	-0.015442	-0.027119	0.006667	0.094810	-0.152479	-0.016986	-0.032655	-0.092218	-0.025750	0.086449	-0.112965	-0.095188	-0.115454	0.123402	-0.050119	-0.100824	0.072764	-0.091551	-0.068712	-0.012730	0.000468	0.066805	-0.017199	0.103625	-0.172803	0.066445	0.073301	-0.054173	-0.041130	-0.005066	-0.030512	-0.139709	0.069111	-0.060818	-0.144743	0.155933	0.085449	0.159326	-0.069173	-0.176782	-0.188655	-0.145623	-0.055442	-0.151288	-0.037457	-0.208530	0.106056	0.097322	-0.085944	-0.043557	-0.151171	0.053113	0.065134	-0.115380	-0.003104	0.079517	-0.034569	0.062847	0.045578	-0.101254	-0.089037	0.161608	-0.031964	-0.098636	-0.128545	-0.001192	-0.032303	-0.116317	-0.190515	-0.212265	0.057963	-0.017537	-0.057534	0.189194	
P793	0.135710	0.180002	0.029276	0.122837	-0.037978	-0.132154	0.065903	0.163156	-0.098764	-0.076888	-0.007440	0.003533	-0.097547	0.049881	0.114165	0.010466	-0.045569	-0.100340	0.061354	-0.011729	-0.116583	0.116833	0.011531	0.174083	-0.116531	0.012626	-0.016027	0.000817	-0.102656	-0.026346	-0.133397	0.144158	-0.163963	-0.093216	0.139345	-0.002121	0.092853	0.026195	-0.153967	-0.135381	0.067001	-0.039394	0.064804	-0.135878	-0.150572	0.061968	0.040570	-0.079127	0.132707	0.056647	-0.154794	-0.078219	-0.059715	-0.083745	0.124274	-0.099879	0.060440	-0.121362	0.075523	-0.093167	0.027751	-0.061977	-0.124686	0.108431	-0.111311	-0.114926	-0.152335	0.158437	-0.014041	-0.081886	0.155241	-0.144580	-0.102455	0.145773	0.086180	0.136433	-0.017856	-0.165873	-0.013767	-0.027937	0.056498	-0.146427	-0.018129	0.141810	-0.014479	-0.125441	-0.135894	-0.128705	0.159033	-0.031052	0.100508	0.026462	-0.086076	0.038791	0.150765	-0.006476	-0.025641	0.002661	0.069351	0.011285	
P2094	0.042525	0.114834	-0.009143	-0.069487	-0.111710	-0.136414	0.036795	0.146404	0.182248	0.104299	0.010022	-0.140638	0.028009	0.197203	-0.033864	0.066840	-0.100720	0.008004	-0.093359	-0.123224	-0.077457	-0.232975	-0.010772	0.005378	-0.168588	0.089385	-0.123671	0.005753	0.036998	-0.036723	0.078817	0.044277	-0.189205	0.077455	0.103365	0.096860	-0.006145	-0.077000	-0.125706	-0.153991	0.048355	-0.060968	-0.006845	0.070569	0.057404	0.049719	0.045672	-0.099669	-0.192959	-0.140010	-0.164874	0.070449	0.088432	0.078014	0.123398	0.061873	-0.139241	-0.051578	0.178795	0.005127	-0.044638	0.017236	0.021768	0.058923	-0.006877	-0.122460	0.135870	0.070406	0.062596	-0.105517	-0.176573	0.230577	0.116920	-0.007829	-0.065558	0.159728	-0.040226	0.068724	0.072027	0.032444	0.090612	-0.013562	0.134740	-0.059942	-0.076879	-0.057350	0.058190	0.096458	0.004573	0.043431	-0.011273	-0.170823	-0.014716	-0.043731	-0.227340	-0.063918	-0.031690	0.026568	-0.057639	-0.034662	
P1344	0.122527	0.143666	0.018273	0.058765	-0.050648	0.168048	0.111868	0.181114	-0.099255	-0.003915	0.162142	-0.076794	0.087189	0.145381	0.078396	0.006637	-0.004889	-0.069437	0.010628	0.055299	0.128487	-0.106032	0.011163	0.159012	0.019630	0.014637	0.017703	-0.132125	-0.048360	0.094364	0.030036	-0.078229	-0.169968	-0.085417	0.092485	-0.045916	-0.074848	-0.043527	0.111210	-0.113537	-0.131373	-0.084792	0.102007	-0.157175	0.165800	0.012455	0.118389	0.055500	-0.068896	0.164478	0.167644	0.141682	0.003699	0.114785	0.022194	-0.035731	0.090389	-0.120958	0.122397	0.053802	-0.157949	0.013954	0.045057	0.060165	-0.116144	0.062998	-0.187996	-0.139752	0.130861	-0.107508	0.063448	-0.138732	0.098387	-0.006268	-0.085762	0.169915	0.009429	-0.055093	0.047302	-0.105295	-0.154038	-0.009857	-0.149841	0.092142	-0.060553	-0.111943	-0.064722	0.068462	-0.049752	-0.076133	0.013504	-0.057271	-0.046158	0.032610	-0.151800	-0.146879	0.016841	-0.110169	0.078912	0.052470	
P1303	-0.034934	0.072995	-0.010044	-0.140486	0.038979	-0.153107	-0.114109	-0.072636	0.105768	0.086978	0.015340	0.015341	0.074129	-0.062398	-0.154022	0.032873	-0.009946	-0.085983	-0.129065	0.101119	-0.080885	0.124292	-0.100213	0.163585	-0.024036	0.105633	-0.059666	-0.106291	0.103485	0.093156	-0.040334	0.123878	0.024252	-0.111909	0.091005	-0.043632	0.130765	-0.144881	-0.140549	-0.024818	-0.035087	-0.104570	0.012934	-0.004459	-0.141661	0.055498	0.105884	0.104819	0.001334	0.063702	0.086844	-0.076882	0.026147	-0.159729	0.102387	-0.144853	-0.077215	0.056821	0.098141	-0.188265	-0.156939	0.113307	0.078744	-0.112086	-0.050882	-0.026874	-0.029766	0.068526	0.073002	-0.090757	0.095956	-0.162093	0.067650	0.117995	0.101030	-0.134238	-0.143684	-0.071867	0.093598	0.051498	-0.160930	-0.136499	-0.085514	-0.111609	-0.144733	-0.139792	0.042935	0.117257	0.154021	0.042252	-0.128430	-0.132972	0.044918	-0.120963	-0.131422	-0.039678	0.132161	-0.096235	-0.092175	0.054909	
P512	0.112223	0.078682	0.068567	-0.113284	-0.086485	-0.152039	-0.120352	0.054551	0.034277	0.102681	0.004950	0.094332	0.020697	-0.074443	-0.141295	0.039945	-0.101233	-0.146245	-0.134397	-0.216841	0.029213	-0.018490	-0.114836	0.108340	-0.095789	0.183645	-0.089146	-0.073212	0.042753	0.074069	-0.083717	0.034989	-0.005144	-0.099736	0.089527	-0.082039	-0.127188	-0.167172	0.105494	-0.037176	0.129672	-0.078301	0.077117	0.100758	-0.050465	0.056378	0.008192	-0.002046	-0.002914	0.087194	0.056695	-0.114141	-0.044058	-0.085203	0.106367	-0.145964	0.057894	-0.121865	0.090870	-0.125549	-0.230352	0.109583	-0.091838	0.026373	-0.149076	0.022255	-0.169498	-0.124092	0.022775	-0.148936	0.103938	-0.127597	0.095760	0.095079	-0.123493	-0.102811	-0.165839	-0.142752	0.104356	0.002750	0.073808	-0.137303	0.028554	-0.054959	-0.003077	0.062657	-0.065638	0.074417	-0.082028	0.105253	0.093927	-0.091366	-0.083573	-0.060006	0.048881	-0.149885	0.107224	-0.061330	0.019861	0.122980	
P84	-0.028440	-0.075856	-0.007473	0.173612	0.025191	-0.152747	0.005419	-0.063480	0.145299	-0.050201	0.108764	0.064200	0.151094	0.155795	-0.068597	-0.047897	0.036795	0.185132	0.002755	-0.046053	-0.018178	0.036788	0.012883	-0.042725	-0.106316	-0.094210	-0.022822	0.018243	0.113117	-0.093200	0.112699	0.100828	-0.123675	0.095789	0.072732	0.011541	-0.036040	-0.061188	-0.180564	-0.100944	-0.182166	-0.005573	0.155897	-0.126877	-0.000264	-0.027132	0.040293	-0.146574	-0.049334	-0.080271	-0.202161	-0.077576	-0.032548	0.037529	0.063255	0.065609	-0.022435	0.047385	-0.059932	0.113220	0.144364	-0.127635	0.078595	-0.142839	0.004868	0.041998	-0.165704	0.158082	0.206772	-0.108804	0.142809	0.171583	-0.099078	-0.151476	-0.113697	0.102798	0.056204	-0.002225	-0.031238	0.153292	0.003570	-0.137899	-0.068550	-0.015770	0.068002	0.039445	0.030606	0.115245	-0.162469	0.052066	0.135255	0.074507	0.007325	0.099834	0.081835	0.160504	-0.067146	-0.004235	0.013076	-0.127522	
P466	0.000472	-0.057613	-0.008100	0.074849	0.058956	0.006758	-0.027815	-0.165758	-0.010415	-0.122204	0.157057	0.028109	0.058476	0.024767	0.007206	-0.048957	-0.013087	0.181662	-0.098131	-0.031210	-0.045876	-0.130000	-0.001586	-0.172164	-0.120918	-0.022113	0.002390	-0.009047	-0.034589	0.008378	-0.186812	0.078133	0.139723	-0.018936	0.042237	0.031323	-0.159811	0.064081	-0.214181	0.066544	0.203198	0.010140	0.113373	0.116208	-0.199122	-0.011115	0.141220	-0.053771	-0.089312	0.017162	-0.230637	0.000539	-0.038192	0.048255	-0.000665	0.052480	0.006581	-0.035325	-0.069477	0.011727	0.157757	0.038221	0.019062	0.046564	0.026159	0.177332	-0.173655	-0.030934	0.155730	-0.046109	0.017338	0.206843	-0.008763	0.039065	-0.151717	-0.107472	-0.009170	0.125021	0.010790	0.146064	-0.041120	-0.170821	-0.152687	0.031441	-0.090210	-0.027588	0.071507	0.174357	-0.156910	-0.028248	0.074672	0.132100	0.022472	-0.031079	0.171140	-0.023054	-0.023332	0.005550	0.056215	-0.190923	
P462	0.102336	0.144698	0.056915	-0.023608	0.015680	-0.011482	0.139968	-0.134692	0.117145	0.107330	0.130836	0.051112	-0.098184	-0.001201	-0.111835	0.006555	0.109772	0.101409	-0.116417	0.133545	0.013778	0.116097	0.102914	-0.052965	-0.141159	0.062011	-0.082029	-0.003570	0.122132	-0.042495	-0.156592	-0.044888	-0.046940	0.107544	0.077293	-0.117829	0.021295	0.056326	-0.137851	-0.134134	0.067792	0.126188	0.072595	-0.185598	-0.095042	0.147757	0.010327	0.019248	0.149230	0.003985	0.130004	0.086474	-0.050670	-0.106316	-0.095453	-0.105043	-0.043749	0.172094	0.019682	0.109501	0.091488	-0.165785	-0.026178	0.058382	-0.011512	0.128032	0.049374	0.114560	0.107457	-0.104191	-0.134502	-0.184757	0.169404	-0.061467	0.091798	0.090451	0.110798	-0.101531	-0.029381	0.126339	-0.020140	-0.107966	0.114784	0.051485	0.106858	-0.135008	-0.097130	-0.138524	-0.151901	0.075286	0.030197	-0.121191	0.021572	0.014980	-0.031728	-0.135552	0.014166	0.023395	0.013965	0.111349	
P361	0.003432	0.028478	0.008924	0.002266	0.033304	0.208328	0.000013	-0.144124	-0.032281	0.041371	0.193458	0.030706	-0.127836	0.061115	-0.153437	0.003145	-0.039822	-0.036113	0.172285	0.139738	-0.033525	-0.141463	-0.002381	0.037375	-0.001942	-0.149705	0.018268	-0.015186	-0.029993	-0.004876	-0.152719	-0.022825	0.194385	-0.031206	0.018215	-0.001474	-0.040536	-0.016299	-0.175542	-0.018650	0.179812	-0.151978	-0.016711	-0.138828	-0.175308	-0.173784	-0.111907	0.005578	-0.104956	0.034362	0.175551	0.034217	0.017168	0.003774	0.051965	0.007898	-0.007595	-0.019757	-0.008291	0.177738	-0.030314	0.031931	-0.175703	0.032307	-0.001771	-0.178572	-0.031053	0.175160	-0.184407	-0.019668	-0.018518	0.164913	0.014749	0.015990	-0.179780	0.153296	0.142645	-0.172302	0.027752	0.002703	-0.185723	-0.131706	-0.032527	-0.053156	0.132618	-0.018263	-0.023019	0.163139	0.170541	-0.013881	0.005269	-0.014277	-0.011409	-0.020988	0.005513	-0.032977	0.024241	-0.018871	0.026028	0.163213	
P3032	0.001620	-0.003385	0.014819	-0.011422	-0.001142	0.005093	0.005788	0.009990	-0.001517	0.004568	0.007041	-0.018636	0.008305	-0.003836	0.024866	-0.007341	0.013316	0.001082	-0.000329	0.000386	0.002422	-0.009671	-0.000941	-0.004194	0.008787	-0.015681	0.002046	0.002528	0.007260	0.002163	0.003056	0.002899	-0.006699	-0.002739	-0.000581	0.031341	0.000805	-0.001980	0.005034	0.006569	-0.046838	0.014936	-0.009713	0.004338	0.010481	0.001752	-0.034286	-0.009462	-0.001459	0.002220	0.003364	-0.004331	-0.008572	0.004298	0.017846	0.001171	0.007140	-0.017507	0.016360	-0.002349	0.006290	-0.002219	-0.007869	0.001659	0.008560	0.004128	-0.001427	0.000255	-0.003025	-0.013598	0.006925	0.005659	-0.000285	0.000621	-0.001302	-0.003083	0.008787	0.028535	-0.010650	0.009089	0.008715	0.000159	0.011139	-0.000997	0.057535	0.004136	0.015311	-0.008539	-0.134457	-0.005405	0.003517	0.095557	0.003864	0.002149	-0.013164	-0.025407	0.002917	-0.001520	-0.000390	0.002340	
P413	0.147563	0.012255	0.063118	-0.100700	0.102269	0.049450	-0.045267	0.072098	0.155554	-0.036773	0.146084	0.125092	0.023288	0.231054	-0.056740	0.083198	-0.078020	-0.069738	-0.105948	-0.192695	-0.039513	0.108829	-0.104041	-0.059299	-0.057167	-0.062740	-0.035223	-0.082001	-0.002501	0.186703	-0.016370	0.007550	-0.059618	0.001426	0.005511	-0.010337	-0.079882	0.029347	-0.095595	0.123470	-0.115596	0.022747	0.155220	0.081575	0.111154	0.018631	0.150229	-0.070509	-0.182458	-0.066348	0.074303	0.064727	-0.015401	-0.110451	-0.093298	-0.141805	0.020904	-0.116521	-0.055260	-0.016285	-0.121698	0.030362	0.003843	0.069903	0.147205	0.022034	-0.194595	-0.123928	-0.059289	-0.168640	-0.011490	0.046286	0.093890	-0.053841	0.112069	-0.001251	-0.068304	-0.065554	0.098288	0.004446	-0.277844	0.037412	0.054787	0.124351	0.085933	-0.081870	0.073201	-0.045284	-0.187399	-0.118052	-0.120372	-0.104727	-0.083266	0.009013	0.065596	-0.166388	-0.050041	-0.052083	0.001367	0.065547	
P1532	0.054627	-0.063991	0.119191	-0.075694	-0.070115	-0.088093	0.065279	-0.151193	0.122677	0.092904	0.168688	-0.067930	-0.026106	0.016888	-0.028873	-0.002803	-0.044718	0.056371	0.021909	-0.129338	0.015510	-0.101975	-0.048113	0.234471	0.010667	-0.064238	-0.053037	-0.073540	0.043120	0.127420	-0.038224	-0.048321	0.083660	0.122548	-0.009156	0.006573	-0.001115	-0.083895	-0.095785	0.133963	0.007332	0.013818	0.004176	-0.146955	-0.090409	-0.019116	0.008926	0.109633	-0.062448	0.012846	-0.226381	0.078416	0.060160	-0.006306	0.060776	0.024256	-0.065320	-0.084080	0.139500	-0.145551	-0.172387	0.123888	0.033220	0.116188	0.081510	-0.142984	-0.212517	-0.138834	0.001522	-0.133709	-0.034769	-0.128831	0.149617	0.115940	-0.019062	-0.030461	-0.039596	0.100425	0.104536	-0.049619	-0.045812	-0.048557	0.021730	0.166069	0.031354	-0.133178	-0.049418	0.111554	-0.173134	-0.122900	-0.101663	0.015404	0.008143	0.039233	-0.184944	-0.223325	-0.082370	-0.126939	-0.001109	0.213759	
P118	0.133191	-0.014914	-0.058003	-0.005556	-0.120545	-0.030183	-0.003183	0.225212	-0.072719	0.074249	0.179234	0.004914	0.162170	-0.101981	0.151804	-0.042938	0.043124	-0.073680	0.024850	-0.173603	0.169267	0.003313	0.013440	0.063386	0.034170	0.110249	-0.038007	-0.179875	0.030906	-0.013917	0.025635	-0.037923	-0.044383	0.020010	0.035251	-0.033300	-0.070501	0.092654	-0.091704	-0.106101	0.015144	-0.020588	0.178569	-0.090040	-0.004275	-0.213235	-0.085411	0.074633	-0.005818	0.175439	-0.226543	0.010219	0.003533	0.020781	0.088432	-0.024314	0.043366	-0.254015	0.061652	-0.055904	-0.114822	-0.006299	-0.137712	0.029101	-0.089116	-0.068636	0.055196	0.020031	0.004632	0.097363	-0.107918	0.194324	0.142090	-0.086491	-0.017415	0.207411	-0.029771	-0.056917	-0.018514	-0.149605	0.050360	0.107051	0.084202	0.166272	-0.084373	-0.106032	-0.055565	0.078771	0.039023	0.077257	-0.032642	0.020311	-0.044787	-0.000812	-0.184673	-0.004735	-0.057067	-0.098747	0.160584	-0.006532	
P54	0.114299	0.034989	0.048515	0.018772	0.060824	0.244720	-0.001416	-0.145550	0.011744	-0.001547	0.092824	0.094620	0.023039	0.052317	-0.020124	0.022507	-0.057814	0.021183	-0.050619	-0.261051	-0.164934	-0.016668	-0.025900	-0.198678	-0.011574	0.001681	-0.044654	-0.233099	-0.028502	0.140395	-0.010683	0.008049	0.006260	-0.069431	-0.011311	0.016728	-0.008326	-0.004854	0.003183	0.169076	-0.015003	-0.003953	0.120319	0.132174	0.032902	-0.004171	0.145495	-0.023371	-0.063833	0.136727	-0.397254	0.054104	0.024024	-0.045398	-0.038918	0.019042	-0.036482	-0.241027	-0.005308	-0.037270	0.037669	0.101706	-0.055442	0.015697	0.034585	0.147082	-0.097490	-0.093409	0.008448	-0.128411	-0.016908	0.114591	0.009999	0.077451	-0.012251	-0.168096	-0.002221	-0.011352	0.089418	0.038912	-0.199831	-0.057697	-0.108926	0.028071	0.005171	-0.091597	0.018740	-0.134445	0.002806	-0.117429	-0.070864	0.005265	-0.058010	-0.057569	0.069946	-0.194361	0.003784	-0.016428	0.028654	0.082277	
P366	-0.042941	-0.110585	0.014092	-0.009370	-0.103246	-0.159586	-0.038917	0.087899	0.132027	0.170245	0.180768	-0.110931	0.070296	-0.139358	-0.005358	0.016094	0.099950	-0.061230	0.135245	0.168785	-0.036635	0.014435	0.017461	0.153731	-0.174056	-0.168237	-0.026538	-0.004091	0.146628	0.022380	-0.209079	0.180870	0.137766	0.001268	0.021503	-0.052627	-0.020814	-0.018176	-0.160634	0.130225	0.199091	-0.021931	0.033737	-0.116291	-0.185759	0.140691	0.039670	0.004889	0.064955	-0.122585	-0.182284	0.007839	-0.005341	-0.019549	0.157862	-0.048621	-0.003807	-0.152812	0.004939	-0.022219	-0.013674	0.023562	-0.092152	0.021109	-0.006456	0.003016	-0.030044	0.092350	0.175413	0.106539	0.118787	0.129477	0.019685	0.030238	0.130430	-0.082266	-0.018854	0.136001	0.093079	0.030217	-0.077258	-0.167027	0.142442	0.054045	0.108571	-0.027197	-0.038218	0.123723	-0.160248	0.037783	-0.011076	-0.018889	-0.127385	-0.015583	0.012402	0.016652	0.015542	-0.017568	0.011211	-0.129452	
P527	-0.017095	-0.174878	0.012128	-0.050085	-0.029177	-0.198603	0.046193	0.009980	0.188246	-0.041101	0.016102	-0.026605	0.132178	-0.043955	-0.184736	-0.114081	0.122846	0.036061	0.181679	-0.113185	0.050404	-0.004867	0.000771	-0.052021	-0.006795	-0.001381	-0.003425	0.008516	0.185593	-0.156661	-0.209581	0.015860	0.194288	0.028416	-0.014894	0.003068	0.058940	0.006684	0.219967	0.022196	-0.163108	0.008080	0.005080	0.143347	0.007958	0.179928	0.002712	-0.013187	0.103761	-0.027740	-0.121721	-0.047684	-0.091272	0.008741	-0.140702	-0.008717	0.002889	0.022405	-0.011026	-0.176883	0.022999	-0.018060	0.075768	-0.049887	0.000665	-0.166353	0.032026	0.206458	-0.184726	-0.170036	0.022243	-0.206891	0.003010	-0.021886	-0.016195	-0.032012	-0.169624	-0.008028	-0.031430	0.010082	0.169377	0.140990	0.019620	0.155648	0.015434	0.018261	0.021922	0.196279	-0.147774	0.030572	0.005480	0.003031	0.018155	0.022349	0.012695	0.032501	-0.026368	0.004861	-0.015582	0.169466	
P119	-0.021946	-0.036910	0.026295	-0.144966	-0.007129	-0.173223	0.029205	0.015199	-0.167491	0.149857	-0.023065	0.004135	0.056031	0.145019	-0.191176	0.040089	-0.074332	-0.168368	0.040585	-0.102204	-0.020020	0.096893	-0.076754	0.217010	0.098424	0.022481	-0.039183	-0.031063	-0.177333	0.139257	0.038315	-0.068580	0.015577	-0.074976	-0.063198	0.002677	-0.089605	-0.122553	-0.076480	0.038482	-0.098966	-0.068036	0.052490	0.009017	-0.024093	-0.060831	-0.092511	0.104915	-0.015088	0.128174	-0.253841	0.008858	0.021469	-0.056087	-0.105700	-0.007645	0.022347	-0.110288	0.073800	-0.131813	-0.112284	0.133817	0.003990	0.100333	-0.070189	-0.155221	-0.010117	-0.196287	-0.179205	-0.133826	-0.147429	-0.198359	0.082545	0.044999	-0.012801	-0.101515	-0.110532	0.048233	0.075897	-0.103353	0.026541	0.108952	0.031421	0.055799	0.104243	-0.060432	-0.078508	0.088119	-0.043238	-0.121567	-0.063405	0.030902	0.032743	-0.108760	-0.180340	-0.062196	0.096610	-0.094969	-0.055102	0.183211	
P495	-0.010054	-0.087525	0.147304	-0.033276	-0.097805	-0.108142	0.072953	-0.150694	0.162375	0.080400	0.208833	-0.041168	-0.067624	-0.068077	-0.198393	-0.087324	0.090711	0.071265	-0.072313	-0.041092	0.006274	0.007342	0.007973	0.128147	-0.043843	-0.116394	0.055761	-0.011906	0.150025	0.119947	-0.152542	0.039676	0.184130	0.038283	-0.064341	0.003426	-0.131208	-0.174124	-0.147672	0.083735	-0.103964	0.015939	-0.067334	-0.066779	-0.158698	0.090824	-0.059724	0.155072	0.135189	0.058731	-0.067515	-0.082142	0.104014	0.065696	0.067313	0.078227	0.068075	0.079118	-0.020377	-0.066478	-0.067405	0.028798	-0.005705	0.018088	-0.036195	-0.179642	-0.080478	-0.133816	-0.054600	-0.057667	-0.162590	-0.162729	0.108899	-0.029670	-0.118876	-0.161425	-0.032606	0.070117	-0.009705	0.086589	0.065583	-0.159688	0.114569	0.091421	0.158242	-0.108742	0.049199	0.124256	-0.091259	-0.078062	-0.105088	0.076725	0.066299	0.011753	-0.020583	-0.062015	-0.037810	-0.153895	-0.081603	0.092229	
P58	0.028298	0.089780	0.092143	0.115821	-0.067343	0.050181	0.019500	-0.063963	0.103719	-0.076047	0.086973	-0.083121	-0.048326	-0.129706	0.014716	-0.113021	0.052837	0.084052	-0.066859	0.096199	0.053709	-0.118373	0.104319	-0.092662	-0.068581	-0.095824	0.070175	0.002738	0.085880	0.036776	-0.076994	0.098797	-0.003078	0.070719	-0.081530	-0.013881	-0.069921	-0.246985	-0.060283	-0.130418	-0.098338	0.043304	-0.012807	-0.082640	-0.182135	0.097486	-0.021058	0.066547	-0.002946	-0.058397	0.039425	-0.257504	0.087992	0.079487	0.097677	0.085293	0.089013	0.044042	-0.058401	0.014340	0.035312	-0.083641	-0.093104	-0.073751	0.083577	0.016498	0.020256	-0.057522	0.051674	0.099928	-0.093134	0.024233	0.054187	-0.114338	-0.112747	-0.079403	0.073231	-0.021792	-0.071862	0.112128	0.073913	-0.093024	0.112368	0.040071	0.096088	-0.071105	0.064234	-0.100563	-0.058818	-0.008075	0.119851	0.059931	0.031524	0.090789	0.094947	0.058093	-0.035783	-0.103031	-0.048449	-0.011104	
P57	0.038686	0.101302	0.076995	0.125466	-0.083099	0.055992	0.008737	-0.060103	0.112250	-0.068408	0.063216	-0.078888	-0.060868	-0.106423	0.018624	-0.117743	0.060809	0.101947	-0.060666	0.073761	0.079876	-0.082345	0.097421	-0.094881	-0.086802	-0.058752	0.070929	0.008323	0.092901	0.020045	-0.080077	0.081966	-0.004225	0.072980	-0.077906	-0.014717	-0.083802	-0.089081	-0.061607	-0.127860	-0.094610	0.041809	-0.020951	-0.056203	-0.115222	0.102232	-0.019863	0.063637	0.006872	-0.084031	0.069157	-0.272250	0.071212	0.086596	0.067626	0.068396	0.089423	0.067383	-0.058388	0.021628	0.054093	-0.082437	-0.085129	-0.089296	0.070561	0.001350	0.020027	-0.039557	0.035459	0.095232	-0.087233	0.028169	0.044350	-0.098059	-0.116074	-0.220174	0.078192	-0.016899	-0.088439	0.109187	0.090439	-0.071732	0.104255	0.015373	0.093158	-0.079680	0.037640	-0.089303	-0.052930	-0.016705	0.086797	0.058654	0.018088	0.107367	0.112184	0.071911	-0.046388	-0.082895	-0.057395	0.009100	
P161	0.058025	0.099828	0.078168	0.083857	-0.040277	0.056506	0.180899	-0.051115	0.119577	-0.044930	0.062510	-0.047245	-0.070199	-0.124000	-0.007914	-0.107947	0.059964	0.050968	-0.094509	0.100246	0.086477	-0.174727	0.098375	-0.147842	-0.086479	-0.096921	0.097421	-0.135113	0.061997	0.175150	-0.018548	0.086776	0.199368	0.077874	-0.083932	-0.031096	-0.097830	-0.159871	-0.020609	-0.108976	-0.114673	0.099468	-0.082197	-0.045953	-0.197252	0.083989	-0.053550	0.117313	0.148313	-0.090079	0.089928	-0.215713	0.063167	0.081268	0.054876	0.088313	0.096510	-0.014154	-0.087355	0.086597	0.068938	-0.095612	-0.089059	-0.049901	0.082765	0.066075	-0.003159	-0.084901	0.063460	0.065222	-0.087631	-0.170366	0.016490	-0.111503	-0.102927	-0.187212	0.125539	-0.093305	-0.076374	0.122577	0.202556	-0.065639	0.100675	-0.007574	0.074466	-0.075448	0.069659	-0.092038	-0.005105	0.089506	0.125255	0.055167	0.040426	0.087660	0.124972	0.093392	-0.022486	-0.091992	-0.070327	-0.050439	
P272	0.087746	0.106228	0.149041	0.055021	-0.080063	0.008712	0.039424	-0.057999	-0.038885	-0.043506	0.033506	0.044769	0.058199	-0.145839	-0.006583	-0.152772	0.050599	0.167075	-0.189623	0.058526	0.052347	-0.148024	0.077433	-0.078499	-0.092245	-0.160000	-0.019234	-0.012789	0.195617	0.170030	-0.145624	0.057292	0.190978	0.084970	-0.085066	-0.044581	-0.238688	-0.215388	-0.189618	-0.087119	0.022935	0.081542	0.068993	0.041587	-0.256058	0.076961	0.081665	0.117272	0.014756	0.045830	0.086424	-0.052035	0.045502	0.114247	0.035468	0.025949	0.081048	0.046531	-0.001860	0.045074	-0.060590	0.035191	-0.080777	-0.043857	-0.002224	-0.066612	-0.107677	-0.072302	0.085750	-0.037751	-0.178390	0.048954	-0.015974	-0.097183	-0.148834	-0.161967	0.104985	-0.109731	-0.049705	0.126977	0.137829	-0.098983	0.098175	-0.023951	0.001489	-0.058001	0.038586	-0.114020	0.089366	-0.045734	0.064492	0.043129	0.025220	-0.083862	0.166329	-0.074273	-0.008410	-0.086662	-0.033761	-0.052766	
P364	0.124686	0.162659	0.096462	0.148473	0.006682	-0.019312	0.028450	-0.040999	-0.055206	0.059795	0.180614	0.054980	-0.075035	-0.176946	-0.051981	0.081238	0.081515	-0.086398	-0.118144	0.144886	-0.024174	-0.151099	0.032018	-0.155089	-0.130946	-0.031360	0.075341	-0.021534	-0.028093	0.133220	-0.104908	0.096573	0.053919	-0.030240	-0.044229	-0.089104	-0.182942	-0.165715	-0.086090	0.008462	-0.183113	0.185288	-0.069578	-0.084148	0.068740	0.210843	0.080163	0.125436	-0.023697	-0.082809	0.003199	-0.007614	0.116754	-0.061320	-0.037705	0.057048	-0.065120	0.054900	0.068886	0.012496	-0.079005	-0.015844	-0.089895	-0.057443	-0.017684	0.038914	-0.124724	-0.157447	0.097770	-0.019379	-0.115135	-0.023486	0.099966	-0.026126	-0.175391	-0.111201	-0.004225	-0.138732	-0.072937	-0.095857	0.094501	-0.103380	-0.055367	0.053826	0.164024	-0.171239	0.089211	0.060350	-0.115644	0.058734	-0.024871	-0.045656	-0.011324	0.142621	0.160757	-0.069325	0.054027	-0.186055	-0.109809	-0.062107	
P162	-0.000191	0.083391	0.161243	0.104359	-0.082671	0.023376	-0.008394	-0.062367	0.129522	-0.044124	-0.144252	-0.050376	-0.040004	-0.123555	0.033806	-0.121959	0.063769	0.135540	-0.189118	0.074893	0.067653	-0.064639	0.085784	-0.088019	-0.069749	-0.052957	0.056016	-0.001585	0.111292	0.203945	-0.142512	0.087676	0.053081	0.100751	-0.065943	-0.024173	-0.221136	-0.234859	-0.203355	-0.097173	-0.108392	0.055927	-0.004785	-0.039045	-0.242264	0.093216	-0.015099	0.026865	-0.018713	0.010431	0.032213	-0.202768	0.074937	0.068989	-0.010510	0.036284	0.090284	0.081698	-0.062758	0.038782	0.057683	-0.106020	-0.075171	-0.107318	0.055210	0.017138	0.017744	-0.038547	0.060946	0.075337	-0.139361	0.110946	0.025359	-0.058278	-0.109114	-0.195760	0.114476	-0.036902	-0.077986	0.113900	0.189129	-0.027123	0.103124	0.027089	0.072361	-0.081845	-0.065289	-0.109955	-0.061442	0.038248	0.073336	0.048001	0.056200	-0.127790	0.083180	-0.131031	-0.089586	-0.146198	-0.035794	0.034377	
P1040	0.058131	0.087703	0.109606	0.117464	-0.071468	0.055008	0.006485	-0.039583	0.030236	-0.073503	0.067900	-0.064718	0.028592	-0.172711	0.013146	-0.099759	0.087721	0.097356	-0.161897	0.065255	0.068418	-0.104287	0.120872	-0.073497	-0.070823	-0.060616	0.111634	0.010936	0.104269	0.163096	-0.063395	0.048766	0.050242	0.079180	-0.076625	0.008928	-0.092484	-0.199761	-0.085201	-0.132299	-0.057332	0.092696	0.018900	-0.032132	-0.117426	0.105363	0.049970	0.172363	0.173567	-0.070123	0.057617	-0.149116	0.054036	0.076178	0.091032	0.081277	0.077806	0.067722	-0.086008	0.034715	0.049200	-0.094940	-0.089008	-0.127587	0.077293	-0.074224	0.030366	-0.029463	0.014085	0.093009	-0.127952	-0.094399	0.072823	-0.112087	-0.121857	-0.070599	0.066687	-0.075264	-0.084344	0.127013	0.120839	-0.098128	0.008477	0.060851	0.104554	0.011003	0.046983	-0.111848	-0.047045	0.009666	0.094536	-0.043108	0.026824	0.090838	-0.010873	0.070051	-0.069058	-0.089575	-0.047658	-0.004276	
P1657	0.014113	0.000078	0.000110	-0.018244	-0.082446	0.087387	0.005588	-0.119408	0.083072	-0.123840	0.063209	-0.092417	0.068794	-0.149672	-0.106393	-0.087049	0.117544	-0.052421	-0.051952	0.025942	0.046816	-0.097412	0.099737	-0.016231	-0.116371	0.065784	0.086061	-0.049659	0.062711	0.047977	0.039694	0.099893	0.018642	0.109914	-0.048796	-0.039472	-0.047333	-0.172310	-0.088858	0.016353	0.068088	0.128035	0.082300	-0.150019	-0.053152	0.019850	0.128995	0.141188	0.137613	0.025181	0.080080	-0.007835	0.139547	-0.065386	0.031317	-0.008829	0.053574	-0.043995	-0.027176	0.068403	-0.094626	0.017426	-0.020531	-0.138600	-0.059191	0.033035	-0.054525	-0.023398	0.026768	0.019602	-0.121781	-0.086566	0.031333	-0.003281	-0.079590	-0.011520	-0.028780	-0.146353	-0.102140	-0.034449	0.021793	-0.054569	0.082458	0.045740	-0.043034	-0.046490	0.039109	-0.099371	0.089026	0.096354	0.036828	0.044752	0.038750	0.072261	0.064024	0.046144	-0.087149	-0.131105	0.048694	-0.113544	
P750	0.111019	0.124787	0.168197	0.052359	-0.072305	-0.001160	0.014058	-0.037671	-0.008105	-0.056041	0.198598	0.031175	0.070485	-0.135805	0.006698	-0.129680	0.048834	0.158784	-0.190903	0.043731	0.064557	-0.172882	0.063692	-0.101071	-0.095351	-0.141942	-0.025767	-0.008734	0.180234	0.185407	-0.134892	0.039455	0.193803	0.061504	-0.088680	-0.041628	-0.256340	-0.243717	-0.171459	-0.054835	-0.004778	0.091965	0.064273	0.038710	-0.189789	0.056296	0.088498	0.160594	0.014385	0.019563	0.095187	0.008215	0.045205	0.100550	0.037368	0.019506	0.074753	0.038265	-0.008382	0.043555	-0.030760	0.020866	-0.078076	-0.059052	-0.002125	-0.058162	-0.108121	-0.066400	0.089964	-0.032102	-0.163936	0.054823	-0.008361	-0.062192	-0.152683	-0.150409	0.110547	-0.112190	-0.026214	0.112717	0.133736	-0.083388	0.062203	-0.036170	0.005057	-0.063481	0.026392	-0.114043	0.088303	-0.053822	0.000897	0.042301	0.006611	-0.086027	0.171684	-0.053039	-0.016776	-0.081054	-0.028759	-0.040924	
P840	0.047625	-0.039063	0.141114	0.030510	-0.026978	-0.061118	0.108144	-0.150179	0.154460	0.061137	0.131122	-0.021568	-0.031832	-0.141963	-0.120541	-0.090987	0.028084	0.083804	-0.101806	-0.013293	0.007906	-0.084842	0.022426	0.066926	-0.053401	-0.096891	0.074172	-0.072935	0.165652	0.154844	-0.106166	0.024669	0.160298	0.043180	-0.103838	0.070022	-0.137897	-0.162949	-0.137650	0.072980	-0.153452	-0.003225	-0.083859	-0.068972	-0.193423	0.061468	-0.066543	0.160936	0.104857	0.041358	-0.124353	-0.023573	0.105543	0.089767	0.110020	0.105279	0.075120	-0.028541	0.014683	-0.052044	-0.028708	0.031941	-0.063023	0.007564	-0.003846	-0.188048	-0.177468	-0.157515	-0.052099	-0.060841	-0.163382	-0.158833	0.098238	0.029892	-0.172115	-0.157611	-0.039232	0.041338	-0.047425	0.094236	0.131624	-0.147323	0.113845	0.099689	0.133524	-0.087971	0.048497	0.097111	-0.059847	-0.044678	-0.130371	0.076400	-0.090664	-0.033432	-0.084537	-0.051346	0.011230	-0.164253	-0.129056	0.064587	
P344	0.014092	0.112033	0.065493	0.118189	-0.093257	0.058052	0.011081	-0.063799	0.119711	-0.065887	-0.028358	-0.085499	0.011129	-0.130863	-0.034524	-0.119599	0.096800	0.111283	-0.193434	0.065857	0.030440	-0.059720	0.098270	-0.122969	-0.089130	-0.003182	0.090652	-0.078891	0.096072	0.186333	0.004808	0.083288	0.011189	0.098587	-0.032515	0.011191	-0.093004	-0.042150	-0.069794	-0.156564	-0.085174	0.090440	-0.064539	-0.057488	-0.159292	0.120486	-0.062754	0.184554	0.026587	-0.088381	0.102692	-0.132018	0.060027	0.090668	0.072078	0.014997	0.100001	0.069080	-0.063311	0.068021	0.078072	-0.068049	-0.062825	-0.015531	0.090755	-0.069167	0.030100	-0.035091	-0.023974	0.081480	-0.104107	0.019090	0.071625	-0.136615	-0.114952	-0.204776	0.037258	-0.020249	-0.070687	0.100082	0.110836	-0.081344	-0.015912	0.014770	0.110793	0.006140	0.063984	-0.041373	-0.055388	0.011235	0.070066	-0.016826	0.009959	0.099574	0.029001	0.068386	-0.072083	-0.054035	-0.075479	0.024492	
P136	0.033387	-0.134503	-0.015705	0.006558	-0.129334	0.046750	-0.008577	0.009944	-0.042245	0.086545	0.076299	0.039604	-0.038316	-0.143602	-0.132945	-0.035203	0.156109	-0.028657	-0.198200	0.102356	-0.104818	0.181750	0.022325	0.168875	-0.082273	0.146051	0.063219	0.020575	0.117459	0.186612	-0.142143	0.111712	0.114119	0.092791	0.162834	-0.091968	-0.020432	-0.206821	-0.109284	0.006360	-0.081322	-0.042899	0.038055	0.039003	-0.043435	0.080802	0.040216	0.108915	0.100620	0.030105	-0.083472	-0.012342	0.018567	-0.075858	0.177923	-0.024614	0.000419	0.050824	-0.072166	-0.082374	-0.045411	0.082515	-0.084375	-0.046983	-0.083343	0.031288	-0.115132	0.115385	-0.000016	-0.102142	0.112595	-0.185917	0.028833	0.128831	0.072751	-0.203659	0.050434	-0.070767	-0.041695	0.133998	-0.133999	-0.104317	0.028417	-0.000103	-0.068357	-0.093529	0.006520	0.165650	0.084032	0.000499	-0.216953	-0.124194	0.025588	-0.110756	-0.113655	-0.103454	-0.042925	-0.054096	-0.089978	-0.113315	
P1552	0.148340	-0.144966	0.007141	-0.010318	-0.120582	-0.113801	0.090766	-0.063170	-0.115913	-0.007286	0.163955	0.007980	-0.058173	-0.140388	0.076936	0.049984	0.054679	-0.057097	-0.177367	-0.137266	-0.004286	-0.162572	0.130561	-0.159995	-0.116367	0.149548	-0.035069	0.019306	0.089850	0.014831	0.147148	-0.033130	-0.172842	0.076440	0.116673	0.013630	0.058483	-0.005585	-0.151795	-0.066120	-0.195219	0.086099	0.025286	-0.110765	-0.132430	0.108483	0.049670	0.140316	0.009632	-0.173393	0.120253	0.043271	-0.030634	-0.064450	0.118210	-0.090213	-0.024392	0.104063	-0.104137	-0.016685	0.104564	-0.115399	-0.014633	0.090313	-0.026423	0.055866	-0.013088	0.130998	0.181116	-0.038820	-0.144641	0.148939	0.031962	0.034468	0.102876	-0.178223	-0.058120	-0.076101	0.021233	-0.150870	0.119898	-0.110049	0.175379	-0.062880	-0.030458	-0.011770	-0.051389	0.110633	0.158872	0.065202	-0.021620	-0.013456	0.006675	-0.018084	0.166232	-0.038941	0.007235	-0.012305	-0.007402	-0.138773	
P2758	0.140092	-0.067417	0.047033	0.002637	0.003188	0.098642	0.027150	-0.035929	0.108424	-0.120339	0.097856	-0.038925	-0.127241	-0.133856	-0.109290	-0.040223	-0.000674	-0.060987	-0.143517	-0.004940	0.049596	-0.143320	0.006950	-0.106862	0.017293	-0.064995	0.162993	0.089987	0.092718	0.150402	0.134459	-0.008817	-0.110593	0.130922	0.065187	0.043378	-0.145041	-0.173862	0.101804	0.031260	0.109067	0.116639	0.071359	-0.123974	-0.093524	0.075823	0.031878	0.142974	0.153227	0.064322	0.139243	-0.133228	0.134417	0.095286	0.122874	-0.071367	0.125014	0.086858	0.006037	0.110981	0.084281	0.095405	-0.069771	-0.029301	-0.029386	0.006193	-0.116393	-0.061834	0.138358	0.064718	-0.050490	-0.137767	-0.000374	-0.045324	-0.168761	0.000025	0.093953	-0.152981	-0.138541	0.078056	-0.007886	-0.055228	0.101784	0.082813	-0.006452	-0.039606	0.094054	-0.070834	0.033422	0.134769	0.024214	-0.101464	0.108235	-0.026089	0.030690	-0.078626	0.008030	-0.025846	0.005438	-0.056037	
P5150	0.120251	0.113578	0.102361	0.072267	-0.129909	-0.027460	-0.018397	-0.097488	0.107027	-0.052244	0.007361	0.034880	-0.100458	-0.136146	-0.103838	0.015697	0.021971	-0.043856	-0.002159	0.014459	0.093478	-0.128668	0.064921	0.008122	-0.017440	0.015936	0.116737	0.071882	0.122479	0.038538	-0.045884	0.134972	0.019877	0.060485	0.024553	-0.011657	-0.133658	-0.020852	-0.034280	-0.068387	-0.030937	-0.041315	0.061774	-0.144343	-0.049381	0.001327	0.056899	0.100218	0.028374	-0.030510	0.090511	-0.084056	0.133815	0.053115	0.127985	-0.088766	0.006632	-0.052749	-0.066412	0.054038	-0.090043	-0.071104	-0.127216	-0.041735	-0.033314	0.006209	-0.122579	-0.066744	0.114902	0.067648	0.003915	0.048688	0.101866	-0.015729	-0.025045	-0.139415	-0.006315	-0.151932	-0.075340	0.056774	0.105614	-0.099321	0.108519	0.055519	0.027915	0.001763	0.098113	-0.106742	-0.052120	0.025067	-0.055186	0.030856	0.119838	0.048737	-0.036099	0.010781	-0.001119	0.007265	0.053268	-0.053352	
P115	-0.000874	0.021960	-0.008353	-0.049305	-0.112319	-0.015554	0.025583	0.198278	-0.002423	0.061007	-0.189817	-0.016172	-0.056264	-0.011791	-0.003349	-0.026482	0.011176	-0.190838	0.095587	0.015321	0.048183	0.059678	0.014529	0.243350	0.059928	0.115836	-0.003769	0.006608	0.031982	-0.019201	0.050298	-0.058708	-0.060359	0.029440	-0.044507	-0.048773	0.069785	-0.084365	0.027138	-0.086184	0.067371	-0.006187	-0.114237	-0.117626	0.008405	-0.012746	-0.188944	0.075138	0.033801	-0.017809	0.306727	0.008874	-0.005050	-0.004023	0.002548	-0.062549	0.002657	0.047489	0.077318	-0.047673	-0.148688	-0.040389	-0.034763	-0.022776	-0.041234	-0.193457	0.176034	0.020600	-0.184092	0.054611	-0.028863	-0.193958	0.033337	-0.030284	0.131529	0.111379	-0.007745	-0.115079	-0.043496	-0.156903	0.053905	0.188761	0.145713	-0.003095	0.142430	0.039882	-0.062640	-0.041260	0.053110	0.054857	-0.051362	-0.112361	-0.068409	0.024652	-0.215231	0.014835	0.034876	-0.014708	-0.150235	0.022306	
P276	-0.133789	-0.171980	0.015140	-0.045038	-0.065778	-0.235104	-0.018315	-0.177130	0.205041	0.019398	0.115406	0.073209	-0.050060	-0.179853	-0.080953	-0.147897	0.003549	-0.046301	0.057511	0.030853	-0.035468	0.059445	-0.031487	0.042480	0.005212	-0.078144	-0.009897	-0.001488	0.183161	0.019720	-0.114546	0.026717	0.152756	0.044681	-0.084037	0.081380	-0.082289	-0.028984	-0.208023	0.011412	0.091096	0.074266	-0.017574	-0.165587	-0.192117	-0.011790	-0.163032	0.027568	-0.186402	0.018351	0.134045	0.037484	0.053364	0.092401	0.031044	0.012045	-0.148325	-0.017221	-0.007678	-0.089006	-0.016592	0.022411	0.030054	-0.025094	0.033398	0.065900	0.098709	-0.055445	-0.180678	-0.031141	-0.053119	-0.211267	0.020293	0.056577	0.055435	0.017357	-0.001178	0.144913	0.026410	-0.027200	0.041840	0.055228	0.068095	0.007725	0.105553	-0.026940	-0.014629	0.148524	-0.177075	-0.092796	-0.059418	0.127656	0.040696	-0.016148	-0.286267	-0.031534	0.061678	-0.028387	-0.108877	0.043804	
P710	-0.108797	-0.173849	-0.016887	-0.123009	0.059647	-0.161482	-0.095837	-0.163491	0.100362	0.014733	0.153872	0.092893	-0.080704	0.049640	-0.144523	-0.001029	0.029374	0.077912	0.073115	-0.071081	-0.094757	-0.100752	-0.008996	-0.127251	-0.043847	0.011283	-0.042551	-0.116545	0.135566	-0.093587	-0.119725	0.113231	0.157609	0.085114	-0.089356	0.046619	-0.068316	-0.113651	-0.170216	0.129626	0.144878	0.094875	-0.095876	0.127369	-0.184606	-0.049456	-0.107152	0.072585	0.044103	0.141736	-0.095283	0.118167	-0.008147	0.122898	-0.038982	0.047066	-0.073968	0.109660	-0.112086	-0.025836	0.140473	0.021078	-0.056818	-0.049554	0.120810	-0.166074	0.151571	-0.121276	-0.156822	0.077367	-0.050838	0.130728	-0.069255	0.033755	0.048954	-0.131994	-0.030885	0.071682	-0.007764	0.121034	0.124447	-0.008012	0.150271	-0.109056	0.137682	-0.080030	0.080264	-0.057693	-0.090983	0.072591	-0.016661	0.063324	0.007661	-0.064739	-0.149360	-0.135995	-0.023667	-0.032218	-0.125323	-0.056339	
P156	-0.001259	-0.003169	0.001934	0.005472	-0.004821	0.006002	0.001344	-0.001002	-0.004587	-0.001478	-0.001425	0.004404	0.010147	-0.003357	0.004670	0.008629	-0.003773	0.005345	-0.000033	-0.004630	0.003107	0.000605	-0.000502	-0.004590	-0.009771	-0.006399	0.001316	-0.000854	-0.004350	-0.003138	0.001031	0.006245	0.001974	-0.003811	-0.004914	0.005652	-0.006097	-0.005567	-0.003318	0.003922	-0.010234	0.005383	0.007938	0.001579	0.004360	-0.010539	-0.006411	0.007956	-0.003915	0.001267	-0.003834	0.000613	-0.001492	0.008242	-0.005541	-0.002584	0.000146	0.006549	-0.003669	-0.003195	0.002396	-0.010968	-0.002433	-0.003049	0.005812	0.006092	0.006790	0.004909	0.001912	0.000597	0.008631	0.003302	-0.003327	-0.003463	-0.001726	-0.008538	0.010262	0.012580	-0.001406	0.001248	0.003681	0.003686	-0.002579	0.003972	-0.001656	0.005111	-0.001513	0.003634	-0.007438	-0.006212	0.005170	0.003814	0.006773	0.011257	0.010424	-0.006420	-0.006947	0.008437	-0.009384	0.001859	
P5008	-0.098111	0.113628	0.088050	0.003693	-0.119531	0.101254	-0.097633	-0.082961	0.092091	-0.101195	-0.103930	0.102912	0.116390	-0.079884	0.048576	-0.070364	-0.107401	-0.106442	-0.126933	-0.086069	0.019523	0.099331	-0.028959	0.082342	-0.092368	0.132646	0.111646	-0.098924	-0.131514	-0.073035	-0.093497	0.080090	0.082555	0.063522	0.081322	0.080179	0.111833	0.109832	0.118356	-0.080360	0.083298	0.093197	-0.075755	-0.094116	0.138353	-0.097034	-0.117423	0.115533	-0.055286	-0.072787	0.125796	-0.087628	0.041403	-0.108770	0.102559	-0.108412	-0.089905	-0.125520	0.064168	0.111170	0.110863	0.092374	-0.117706	0.113416	-0.052669	0.121102	0.117063	0.094107	-0.116702	0.110339	0.093195	0.122722	-0.089037	-0.095131	-0.099264	0.084798	-0.117665	-0.101780	-0.094476	-0.109345	-0.122247	0.089011	-0.096267	-0.096390	-0.109969	-0.091092	-0.105719	-0.121606	0.120839	-0.123128	0.103619	0.064737	-0.100930	-0.102409	-0.115379	-0.116262	-0.120301	0.059903	-0.118505	0.125890	
P102	0.011867	0.004375	0.054376	-0.137258	-0.086576	0.016754	-0.151558	0.085263	-0.030769	0.070880	0.055204	0.091198	0.082890	0.014770	-0.171081	0.013018	-0.103974	0.033059	0.022436	-0.078556	-0.108522	0.033386	-0.022283	-0.093517	0.008919	0.113468	-0.077854	-0.025374	-0.003265	0.043923	-0.014521	-0.041584	-0.098268	0.037517	-0.056751	-0.232462	-0.144227	-0.133967	-0.028844	0.056790	-0.054118	-0.067358	0.073562	0.112686	-0.007534	-0.016855	0.019097	0.007796	-0.016385	0.129029	-0.076939	0.005072	-0.035180	0.012533	0.000854	0.034082	-0.027224	-0.073823	0.018043	0.009319	-0.251429	0.122903	-0.263890	0.180468	-0.219330	-0.212669	-0.179025	-0.047641	-0.329621	-0.032351	-0.043792	-0.284599	-0.007720	0.026092	-0.017835	-0.116008	-0.105588	0.043815	0.104515	-0.041683	0.077537	0.114698	-0.122048	0.010396	0.017238	0.004670	-0.050655	-0.061005	-0.012832	-0.011698	0.041874	0.030481	-0.127623	-0.142459	0.116306	-0.012544	0.006843	-0.092981	0.014074	-0.031310	
P1433	0.015177	0.072228	0.019659	-0.036456	0.021339	0.034232	-0.052018	0.063219	0.098713	0.076057	-0.012093	-0.001952	0.063446	-0.149686	0.081329	-0.017299	-0.007857	-0.080375	-0.031766	-0.056197	-0.003414	0.148747	0.050033	-0.046711	-0.095999	-0.044783	0.031352	0.030100	0.239637	-0.010425	-0.245599	-0.026139	-0.049112	-0.053292	-0.165537	-0.035810	0.047496	-0.052381	0.079525	-0.051590	0.032460	0.121949	-0.039018	0.189754	0.030193	-0.025827	-0.099404	0.122331	-0.027876	0.073944	-0.285741	0.062665	-0.044895	0.106387	-0.017575	0.185259	0.016681	-0.010252	-0.046609	-0.055778	-0.019301	0.027599	0.125965	-0.018804	0.084479	0.012411	-0.047188	0.171266	-0.070942	0.008345	0.052522	-0.002524	0.002550	0.073925	-0.183903	0.013267	0.032985	-0.036084	0.035062	0.095064	0.238719	0.001893	-0.013474	0.120958	0.001277	0.009694	-0.070060	0.277322	0.063597	-0.009763	-0.034485	-0.060644	0.032063	-0.069766	-0.054401	-0.100344	0.023744	0.015369	0.003116	0.119203	
P50	0.066609	-0.124456	0.072227	0.131497	-0.002443	0.066341	0.081391	-0.060999	0.106921	-0.042699	0.094669	-0.085990	0.004299	-0.164035	0.016745	-0.104484	0.038779	0.154501	0.103093	-0.097380	-0.019381	0.119671	0.098897	0.153760	-0.097785	-0.083738	0.081093	0.084261	0.106004	-0.085491	-0.156656	0.069807	0.126591	-0.105154	-0.086997	0.024135	0.130606	0.021672	-0.185838	0.100233	-0.126354	0.019052	-0.091118	0.146389	-0.182830	-0.066491	-0.106336	0.011327	-0.144036	-0.047532	-0.000654	-0.107442	-0.121826	0.071448	0.151219	0.105985	0.078771	0.121541	-0.108010	0.019865	0.058624	-0.128551	0.087447	0.114173	0.012045	-0.154454	0.038721	-0.011639	-0.160212	0.085174	-0.141867	0.059821	-0.081895	-0.028137	-0.142476	0.038392	-0.144427	0.027617	0.003681	0.141164	0.033305	-0.103205	0.063075	0.147754	0.083595	0.045157	0.106034	0.121215	-0.079848	-0.122646	-0.030402	0.116016	0.026480	0.104033	0.090874	0.125375	-0.005646	-0.089935	-0.055142	-0.118010	
P921	0.077960	-0.157354	0.006331	-0.084704	0.075532	0.054570	0.076924	-0.122472	0.143608	0.076969	0.141049	-0.027497	-0.113722	-0.133562	-0.105630	-0.082089	-0.019922	0.093250	0.086632	-0.111272	-0.084036	0.037423	0.062955	0.134322	-0.112017	-0.136876	0.078373	-0.002467	0.118258	0.011296	-0.124259	0.123309	0.127711	-0.091838	-0.046857	-0.087337	-0.140495	-0.170722	-0.141332	-0.078388	-0.098720	0.115217	-0.103494	0.040405	-0.172286	0.090664	-0.128134	0.139428	-0.034341	0.082416	-0.166559	-0.055408	-0.058432	0.096170	0.139232	0.106307	0.040641	0.125474	0.051081	-0.056496	-0.076127	0.045111	0.073261	0.126692	-0.070083	-0.100818	-0.098671	0.057997	0.114247	0.048115	0.077907	-0.144030	0.001966	0.074898	-0.136656	0.032981	-0.102067	0.172765	0.052506	0.127406	0.096250	-0.139794	0.064503	0.106905	0.118771	-0.088743	0.064895	0.137009	0.055973	0.072840	-0.084970	-0.038964	-0.030308	-0.090120	0.084424	-0.091347	0.100396	-0.118437	0.037690	-0.112065	
P2860	0.013233	0.021665	-0.171162	-0.174189	0.010510	-0.005858	-0.004525	0.164074	-0.013977	-0.005458	0.185784	-0.000587	0.005459	-0.250859	0.004554	0.011431	0.004004	-0.001054	-0.007044	0.002698	0.004397	-0.000933	-0.004341	-0.009328	-0.008807	-0.002207	-0.024259	0.017140	0.222408	-0.005516	0.001118	-0.024864	-0.005634	0.008465	0.028055	-0.008480	-0.210563	0.015414	-0.097148	0.003320	-0.001321	0.000494	0.000009	-0.020378	-0.009883	-0.101462	0.001472	0.000098	-0.013977	0.000012	0.005046	-0.007862	0.011279	0.008309	-0.004676	-0.012350	-0.008100	-0.005898	0.003860	-0.006868	0.013727	-0.006479	-0.001390	-0.016371	-0.000539	0.172388	0.002184	-0.005989	-0.015327	-0.006722	-0.008281	-0.263288	-0.184576	-0.003641	-0.009097	-0.000311	0.188459	-0.010729	0.001196	0.002728	-0.008292	0.004377	0.021407	-0.003020	0.139954	0.000669	-0.009126	-0.001143	0.146944	0.009342	-0.001631	0.022965	0.000856	-0.252078	-0.002240	-0.007811	-0.009549	0.001347	-0.007563	-0.002350	
P407	0.113581	0.027217	-0.051424	0.177282	0.077084	-0.048942	0.074323	0.068493	-0.021814	0.018302	0.004480	0.076752	-0.089037	-0.171715	-0.087228	0.001374	0.097147	-0.026951	-0.047660	0.088541	-0.119584	-0.003529	0.042359	0.077493	-0.097386	-0.093488	0.138342	0.105659	-0.072377	-0.052845	-0.148606	0.136193	0.181289	-0.120626	-0.025353	-0.026842	-0.174468	-0.107714	-0.158640	0.109309	-0.145145	0.046195	-0.086258	0.072194	0.031696	0.078807	0.073587	0.117170	-0.165174	-0.125046	-0.031379	0.008738	0.047849	-0.036964	-0.027901	0.108954	-0.009631	0.122964	0.048918	-0.017341	-0.077346	-0.106179	0.139857	0.102022	-0.102702	0.039430	-0.091242	-0.105260	0.159112	0.115822	-0.028926	0.108822	-0.123181	0.128858	-0.149991	-0.129048	-0.116007	0.041227	-0.117608	-0.006014	0.176939	-0.109483	-0.041051	0.095552	0.121914	0.019849	0.136781	0.154939	-0.125853	0.118075	-0.103794	-0.069752	-0.112312	0.068291	0.098114	0.000116	0.108555	-0.125478	-0.119557	-0.132664	
P195	0.002505	-0.166855	0.008523	-0.041454	-0.068608	-0.244736	-0.020939	-0.163111	-0.068983	0.030466	0.129837	0.062285	-0.065204	-0.174535	-0.094096	-0.160097	0.007409	-0.045284	0.055681	0.212915	-0.035778	0.057579	0.147879	0.046010	0.003125	-0.081740	-0.010708	-0.016149	-0.010175	0.015509	-0.110588	0.017340	0.152634	0.060796	-0.090242	0.097591	-0.078740	-0.029386	-0.193781	-0.252367	0.100528	0.067058	-0.043784	0.067453	-0.198138	-0.008851	0.006001	0.023634	-0.177382	0.016292	0.134978	0.026375	0.046009	0.094219	0.032899	0.003130	0.024595	-0.023002	0.000325	-0.090260	-0.023308	0.021089	0.039391	-0.201201	0.043910	0.076272	0.082015	-0.046050	-0.177458	-0.028761	-0.050081	0.041060	0.013612	0.068252	0.074210	0.115539	-0.020273	0.011809	0.233623	-0.020692	0.193345	0.043367	0.072331	0.016970	0.109006	-0.015689	-0.019147	0.141364	-0.174370	-0.100293	-0.063778	0.128085	0.030557	-0.019289	0.135959	-0.043830	0.054653	-0.037655	-0.088834	0.038382	
P170	0.011771	0.048946	-0.051920	0.093689	-0.068990	-0.123653	0.201899	-0.061496	0.095762	0.040015	0.085516	0.066907	-0.009390	-0.176129	0.100704	-0.118318	0.053383	0.095002	0.080870	0.091338	-0.054116	0.060895	0.084534	-0.060164	-0.087462	-0.073003	-0.066856	-0.007463	0.103818	-0.069812	-0.099528	0.000769	0.148296	0.076307	-0.073871	-0.008836	-0.005106	-0.070262	-0.159355	-0.230244	-0.114008	0.029528	0.099883	-0.049706	-0.314716	-0.006969	0.031054	-0.100718	-0.090915	-0.042303	-0.007516	-0.271510	0.095843	0.057197	0.043151	0.037005	0.051814	0.070666	-0.099617	-0.016832	0.059750	0.010294	0.083186	-0.102816	0.045373	0.000360	0.013097	0.077642	-0.141656	-0.017451	0.069686	0.094987	-0.058772	-0.040237	0.013188	0.097075	-0.018080	-0.018098	0.115938	0.096529	0.265650	-0.028629	0.003484	-0.028988	0.092661	-0.060453	0.065766	0.073091	-0.132760	0.014499	0.082663	0.057149	0.026456	0.024770	0.257196	0.066034	0.117202	0.049135	-0.079106	-0.104606	
P180	-0.069976	-0.141077	0.029563	0.070210	-0.074468	-0.142471	0.083792	-0.104952	0.112603	0.104379	0.101612	0.086202	-0.094287	-0.152274	-0.117706	-0.071535	0.013976	0.066769	-0.110972	0.088105	-0.068188	0.118558	0.045188	0.059974	-0.107453	-0.085541	-0.107644	-0.055658	0.132673	-0.036114	-0.117945	0.111140	0.141026	0.054344	0.096639	0.054585	-0.121688	-0.139632	-0.158593	-0.105364	-0.122604	0.103488	-0.095254	-0.098387	-0.160843	0.081819	0.059219	-0.102755	0.114849	0.090100	0.038867	-0.062034	-0.073091	0.057078	0.109239	-0.100263	-0.036524	0.122124	0.062122	-0.128632	-0.131594	-0.074355	0.070551	-0.095744	-0.015401	0.117229	-0.123764	0.110753	-0.096308	-0.135993	0.107892	-0.120762	0.113697	0.121346	0.057094	0.083331	-0.117516	0.078504	0.118525	0.130959	0.090933	-0.141707	-0.001391	0.109785	0.103618	-0.090433	0.074111	0.135062	-0.146236	-0.023916	-0.109468	-0.110152	0.052268	-0.070386	-0.067058	-0.131077	0.101644	-0.100107	-0.043567	-0.110806	
P1598	0.007780	0.013816	0.003744	0.014668	0.018425	-0.221011	0.006679	-0.024031	-0.003923	-0.002207	-0.007505	-0.005599	-0.007105	-0.013005	0.011790	-0.007971	0.004738	0.014947	-0.014400	0.006336	-0.003684	-0.005267	0.009563	-0.012470	-0.001361	0.012658	-0.008756	-0.005569	-0.000502	-0.015429	0.121774	0.001394	0.015022	0.021521	0.002048	0.009937	-0.005893	0.007576	-0.017943	-0.004236	0.015921	0.003239	-0.004115	0.003911	-0.027789	0.000905	-0.006408	0.001277	-0.010495	-0.015479	-0.007956	0.008992	-0.145312	0.008867	0.004575	-0.005323	-0.000563	-0.006808	-0.007044	-0.006125	0.009383	-0.019042	-0.001925	0.009803	0.014386	-0.002282	-0.010130	-0.000894	-0.004160	-0.005189	-0.004688	-0.005328	-0.011722	0.009426	0.017419	0.004892	-0.005716	-0.007481	-0.002604	-0.003557	0.013403	-0.021514	0.003568	0.006917	0.066101	-0.003219	-0.002341	-0.008649	-0.010393	-0.003839	-0.148752	-0.001277	0.011521	-0.009662	0.000724	0.000525	-0.002556	-0.000098	-0.011158	-0.000509	
P140	0.057797	-0.014755	-0.099954	-0.169797	-0.023973	0.049589	-0.124848	-0.080665	-0.123171	0.170032	0.115111	0.092378	-0.112053	-0.037204	-0.170577	-0.058724	-0.075628	-0.154390	-0.091858	0.112853	-0.131655	0.094990	-0.101115	0.162899	-0.077711	0.120731	-0.087497	-0.125687	0.096611	-0.036667	-0.134149	0.099081	0.074512	0.033820	-0.008872	0.047065	0.022324	-0.167907	-0.156962	-0.156848	-0.029042	-0.064281	0.055044	0.091982	0.096555	0.082350	-0.096132	-0.133065	0.072472	-0.115421	-0.117550	0.092780	-0.115568	-0.067770	0.076160	-0.116130	0.022460	-0.152752	-0.016877	-0.090915	-0.191719	0.130026	-0.054494	0.011878	-0.042642	-0.140982	0.033460	0.097176	0.107196	-0.114434	-0.031160	-0.137528	0.113609	0.119902	-0.142363	-0.084447	-0.187715	0.084470	0.005376	-0.038872	-0.107852	0.025489	0.025312	0.056490	0.082413	0.022891	0.040555	-0.108923	0.127083	-0.020951	0.076915	0.008936	-0.103483	0.080560	-0.076675	0.085583	0.170053	0.036238	0.038238	-0.002493	
P186	-0.132200	-0.156219	0.007607	-0.092213	0.055950	-0.161667	0.116144	-0.082177	-0.101151	0.019598	-0.010656	0.154130	-0.059621	-0.155393	-0.013592	-0.061761	0.063429	0.010160	-0.042375	0.168253	-0.070180	0.021249	-0.015155	-0.026406	0.021618	-0.119137	0.018139	-0.018789	0.191178	0.051504	-0.201449	0.116617	0.015174	0.012771	-0.006119	-0.008830	-0.098193	-0.045029	-0.184409	-0.125507	-0.086168	0.000778	-0.060006	0.047525	-0.186813	0.166505	-0.051491	-0.075683	0.122361	0.029493	-0.087162	-0.032935	0.088077	-0.018691	0.199794	-0.109204	-0.044518	0.182792	0.015503	-0.001054	-0.033386	0.009551	0.163244	-0.042409	-0.006083	0.172535	-0.068098	0.174481	-0.205732	0.008862	0.136167	0.127784	0.073230	0.010784	0.093460	0.140521	0.006407	0.114439	0.016241	0.103111	0.167623	-0.123907	-0.073839	0.059689	0.110892	-0.071026	0.001888	0.157004	-0.129167	-0.012583	-0.006801	0.085104	-0.057260	0.042986	0.008547	-0.131649	0.064934	-0.056353	-0.007927	0.123084	
P3602	0.059985	0.085517	-0.020091	-0.096784	-0.116352	-0.026718	0.034689	0.177497	-0.001489	0.095690	0.065799	-0.002250	-0.079560	0.050841	0.043150	-0.064638	-0.085197	-0.078790	-0.090078	0.070569	-0.001382	0.063730	0.004881	-0.025417	0.038351	0.163797	-0.042016	-0.068821	-0.030056	0.099089	0.102674	-0.060889	-0.159580	-0.017188	0.081260	-0.110695	-0.001048	-0.141257	-0.053513	0.103417	-0.059342	-0.094121	-0.029699	-0.103911	0.035804	-0.069741	0.051078	-0.010667	-0.091522	-0.011815	-0.024792	-0.003123	0.046736	-0.122557	-0.006191	-0.052637	0.062243	-0.119995	0.130835	0.078576	-0.195148	0.036182	-0.045432	0.194418	-0.143867	-0.036378	-0.215168	0.019028	0.005858	-0.043259	-0.005244	-0.209148	0.095489	0.093887	-0.129960	-0.084874	-0.091787	-0.031985	0.086988	-0.111656	0.029593	0.117969	-0.134039	0.019633	0.004818	-0.034065	-0.114827	-0.133266	0.041142	-0.105410	0.069439	-0.015811	-0.028624	-0.122767	0.146327	0.038671	0.069763	-0.095614	0.106147	0.039303	
P137	-0.068955	0.068366	0.013124	0.021939	0.057198	-0.201906	-0.040715	-0.165383	0.188123	0.051931	0.068350	0.018616	0.081950	-0.032359	0.117183	-0.042143	-0.004610	0.100802	-0.003010	-0.084906	-0.025476	-0.100305	-0.051607	0.214150	-0.094885	-0.182491	-0.026264	0.017386	-0.034067	0.028042	-0.157948	0.052498	0.136779	-0.003229	0.037706	0.110546	-0.136014	-0.036093	-0.204140	0.127881	0.171546	0.042730	0.002017	0.037259	-0.196169	-0.017210	0.134026	-0.022390	-0.050976	-0.023835	-0.224593	0.015013	-0.114712	0.033612	0.108497	0.036952	-0.013696	-0.047440	-0.089260	-0.021434	-0.019478	0.021089	0.114613	0.085826	0.007172	0.104321	-0.089254	-0.051677	-0.167276	-0.033149	-0.063517	-0.160135	0.003151	0.046057	-0.004792	-0.046925	-0.004459	0.191569	0.005401	0.104010	0.063817	-0.196802	-0.076818	0.142580	0.188505	-0.152688	-0.025000	0.180863	-0.159166	-0.033658	0.071905	0.142628	0.081149	-0.047282	0.142041	-0.043903	-0.047967	-0.015218	-0.041529	-0.082175	
P4552	-0.008664	-0.083109	-0.173776	-0.029919	-0.009645	0.036477	0.031749	-0.002870	0.128399	0.015856	0.034229	0.042251	0.002242	-0.029904	0.000600	0.011217	-0.007980	0.001479	-0.023540	-0.032501	-0.032895	0.009485	0.013495	-0.000912	-0.016430	-0.162733	0.086329	-0.003015	0.001896	-0.175351	-0.012753	0.005451	0.020198	-0.045370	-0.010072	0.044331	-0.012543	-0.020545	-0.195112	0.002990	-0.076958	0.026379	0.006911	-0.145602	-0.122864	-0.022809	0.006095	0.010806	0.081978	0.000465	0.014543	0.028364	0.003383	-0.001025	0.100795	-0.025599	-0.008172	-0.025150	0.020530	-0.019830	-0.015064	-0.007793	0.006778	-0.013962	0.008901	-0.037420	-0.061258	-0.044166	-0.041055	-0.016352	-0.035984	-0.017159	-0.016011	-0.007973	0.054477	0.015930	-0.028187	-0.058039	0.028244	-0.002692	-0.046823	-0.106354	-0.014865	-0.146160	-0.043295	0.002704	-0.002982	0.223318	0.100600	0.051505	-0.005151	-0.014734	0.030237	-0.033911	0.038319	-0.036470	0.012871	-0.028690	-0.032127	0.008665	
P915	0.052232	-0.003085	0.148940	0.004310	-0.067087	-0.082361	0.084929	-0.162031	0.158822	0.030055	0.119114	-0.031506	-0.069955	-0.141418	-0.128179	-0.076069	0.032264	0.090036	-0.120385	-0.034027	0.040456	-0.060601	0.010908	0.071061	-0.010768	-0.088768	0.076356	-0.099429	0.169976	0.198331	-0.092167	0.000474	0.132115	0.004707	-0.084521	0.052879	-0.198136	-0.192165	-0.142987	0.034829	-0.134696	0.064600	-0.036939	-0.079380	-0.195714	0.069944	-0.092349	0.180754	0.098656	0.071706	0.083019	-0.020519	0.074735	0.057638	0.015434	0.070875	0.067473	-0.038918	0.039991	-0.059415	-0.093048	0.037947	-0.089838	-0.034312	0.024050	-0.159329	-0.175636	-0.153576	-0.042810	-0.069897	-0.139114	-0.174293	0.115776	0.006168	-0.170569	-0.163706	-0.005234	0.067994	-0.018835	0.072467	0.148340	-0.159263	0.083351	0.073400	0.145378	-0.080708	0.002651	0.085023	-0.095629	-0.030142	-0.067882	0.040242	0.020786	-0.086574	-0.110117	-0.068982	0.020946	-0.174434	-0.127891	0.017373	
P86	-0.024956	0.197415	0.114744	0.200045	-0.063298	0.043087	0.181649	-0.012262	0.136283	-0.069480	-0.055719	-0.052744	-0.071651	-0.225887	0.002835	-0.195332	-0.152213	0.049779	-0.188362	0.103574	0.067199	-0.129079	0.096875	-0.085135	-0.095905	-0.047833	0.093220	-0.011905	0.097784	0.153030	-0.199260	0.087145	0.256764	0.096395	-0.075099	-0.021685	-0.126143	-0.069007	-0.002552	-0.153746	-0.071996	0.059881	-0.063931	-0.093462	-0.211909	0.006966	-0.072276	-0.036804	0.054331	-0.006886	0.037987	0.022189	-0.020667	0.081383	0.018017	0.073770	0.105957	0.108278	-0.056239	0.075380	0.057786	-0.105677	-0.066130	0.005978	0.064388	-0.003300	-0.037273	-0.004447	0.057283	0.036158	-0.087202	0.085408	-0.000851	-0.042471	-0.122882	0.047543	0.115199	-0.052516	-0.075958	0.224747	0.216867	-0.048437	-0.011012	0.025309	0.060738	0.035719	0.057108	-0.086294	-0.075884	0.080922	0.091898	0.028463	0.037953	0.075307	0.095572	0.138521	-0.069541	-0.000305	-0.010648	0.030686	
P1411	0.063841	0.035043	-0.081714	0.150078	-0.040118	0.160836	0.090296	0.027970	-0.162661	-0.060129	-0.025384	-0.002855	-0.035635	-0.125179	0.037875	0.072211	0.042718	-0.191433	-0.104549	0.103827	-0.053056	0.150204	-0.059355	0.168285	0.064935	0.178229	0.004418	-0.080875	0.068512	0.149492	0.118762	-0.100857	-0.156401	0.098228	0.123402	-0.060547	-0.128485	-0.176899	0.146649	0.005024	0.116664	-0.050791	0.072212	0.071211	0.188386	0.048920	0.032936	0.130178	0.139948	0.128812	-0.050313	-0.168891	0.083479	-0.068753	-0.044084	0.007353	0.021271	-0.134016	0.141880	0.030864	-0.130925	0.133705	-0.067867	-0.047707	-0.117735	-0.094609	-0.039244	-0.138368	0.026617	-0.122132	0.045833	-0.002053	-0.011566	-0.061881	-0.179213	-0.105046	-0.160203	-0.107131	-0.053675	-0.134654	0.060886	-0.122448	0.014320	-0.077078	-0.026880	0.061470	-0.095719	0.055169	-0.038483	0.118284	-0.051590	-0.049316	-0.042897	-0.160977	-0.172803	0.079430	0.056213	-0.022040	-0.008782	-0.013941	
P166	0.064105	0.029787	0.080859	-0.074548	-0.057961	0.176172	0.096069	0.046255	-0.159149	0.069863	-0.029145	-0.023492	-0.051949	-0.083019	0.016733	0.050835	0.022917	-0.182890	-0.131265	0.090989	-0.054313	0.155027	-0.047665	0.193845	0.000842	0.169372	0.008138	-0.089070	-0.048422	0.146177	0.110430	-0.095358	-0.154143	-0.087443	0.098383	-0.009084	-0.131050	-0.189211	0.153879	0.004350	0.149560	-0.064035	0.093764	0.049305	0.196534	-0.031551	0.038808	0.106658	0.132387	0.124102	-0.023677	-0.153597	0.068819	-0.058102	-0.027715	-0.008871	0.011298	-0.132163	0.137042	-0.084172	-0.125192	0.114165	-0.061163	-0.051091	-0.142297	-0.046653	-0.043979	-0.132512	0.028822	-0.127610	0.062928	0.003829	-0.021409	-0.013696	-0.172401	-0.117000	-0.163564	-0.148677	-0.076019	-0.139945	0.042098	-0.129815	0.018596	-0.072524	-0.040005	0.048490	-0.120852	0.056947	-0.122841	0.129114	0.010724	-0.067129	-0.051233	-0.159490	-0.161399	0.058276	0.025865	-0.057524	-0.066828	-0.011833	
P2554	0.075594	0.083132	0.056810	0.087395	-0.107977	0.064149	0.063078	-0.058283	0.099252	-0.042461	0.063490	-0.076713	-0.063837	-0.133742	0.014724	-0.135871	0.086303	0.113956	-0.167159	0.111678	-0.003191	-0.033188	0.094069	-0.107720	-0.064153	-0.091541	0.034782	-0.076938	0.096397	0.050622	-0.057466	0.014972	0.072571	0.091074	-0.069409	-0.008728	-0.051896	-0.176940	-0.078828	-0.141538	-0.081707	0.077490	-0.068039	-0.065319	-0.184877	0.103960	-0.030336	0.026307	0.110022	-0.091481	0.043302	0.010775	0.014233	0.099777	0.058630	0.107122	0.125883	0.081497	-0.084568	-0.017509	0.105306	-0.095769	-0.087167	-0.115692	0.070080	-0.067243	0.010539	-0.002698	0.017386	0.084029	-0.203588	-0.126986	0.111652	-0.139076	-0.181321	-0.180754	0.113338	-0.022072	-0.079755	0.104062	0.159875	-0.086098	-0.004104	-0.043401	0.109033	-0.006145	0.030912	-0.115235	-0.021549	-0.011796	0.126619	-0.015812	0.058001	-0.018050	0.070307	0.153019	-0.074442	-0.078642	-0.093446	0.012423	
P5970	0.148447	0.169734	0.022952	0.114771	0.056658	0.008276	-0.016580	-0.043564	0.101472	0.011486	0.132039	-0.007278	-0.126256	-0.090115	-0.138613	0.034885	0.010377	0.089139	-0.167691	0.162803	0.132717	-0.030374	-0.047877	0.069606	-0.111198	0.099383	0.075058	0.059538	0.009081	0.186338	-0.032011	-0.027699	0.062009	0.031165	0.098899	-0.150454	-0.142684	-0.054079	-0.023554	-0.168783	-0.070331	0.002066	-0.043168	-0.105326	-0.139935	0.078045	0.003211	0.014510	0.165488	-0.038541	0.123019	-0.012031	0.145071	0.147254	0.124667	0.066550	0.078515	0.085536	0.013168	0.175828	-0.117772	0.028018	-0.171523	-0.145958	0.054548	0.028334	-0.151632	-0.160295	0.146714	0.023133	-0.009043	-0.046364	-0.036411	-0.125709	-0.124181	-0.035346	0.120287	-0.163845	-0.096002	0.157461	-0.013717	-0.068245	-0.010344	0.125959	0.021769	-0.071188	0.023537	0.000617	-0.094138	-0.003296	0.095615	-0.091605	-0.060798	0.113227	-0.051071	-0.014548	-0.174368	-0.150370	0.110732	-0.157474	
P26	0.001442	0.006857	-0.002531	0.011518	0.011160	-0.002081	0.008953	0.003359	0.004658	0.010148	-0.002098	-0.000715	-0.010803	-0.004128	0.005851	-0.007379	0.002260	0.015461	0.015388	0.000647	-0.006665	0.002761	0.006178	0.001485	-0.007313	-0.004213	0.004268	0.000592	0.021119	-0.013110	0.006123	-0.010914	0.000285	-0.011387	-0.000735	-0.006584	-0.004333	-0.007761	-0.009426	-0.000940	-0.006114	0.003462	0.004319	-0.008744	-0.013206	-0.029217	-0.005409	0.002641	-0.007720	0.001180	0.006025	-0.005254	-0.006373	-0.004896	-0.000422	-0.001426	0.001653	-0.003239	-0.001269	-0.007295	-0.001524	-0.003405	0.002446	-0.005547	-0.002284	0.006834	0.000324	0.002368	-0.006925	-0.012163	-0.007932	-0.000588	-0.008595	0.004392	-0.000238	0.002304	0.010319	0.004393	-0.000212	0.007783	0.003551	-0.001883	0.002089	0.003434	0.002010	-0.003331	0.007005	0.005803	-0.004861	0.003340	0.015052	-0.008675	0.009282	-0.001647	0.002474	-0.007049	0.016692	0.000672	0.002559	0.006487	
P144	0.000637	0.176316	0.012369	-0.023128	-0.156283	0.001269	-0.015010	0.014150	0.000083	-0.080546	0.206364	0.012139	-0.253366	-0.236198	-0.152591	-0.192668	-0.009007	-0.020376	-0.183125	-0.011115	-0.057182	-0.029566	-0.016092	-0.039825	0.011831	-0.200551	-0.029162	-0.010624	0.208357	0.192387	-0.205517	0.193979	-0.028542	0.005478	0.008656	-0.002132	-0.213718	-0.155617	0.026102	-0.030419	0.020388	0.149710	0.006312	-0.034581	-0.225366	-0.000891	-0.005695	0.156537	-0.001729	0.016204	0.058796	0.037853	-0.098491	-0.010213	0.202784	-0.032887	-0.020375	-0.022486	0.027067	-0.010241	-0.014137	0.019804	-0.114310	0.057837	0.001440	0.193675	-0.006333	-0.007517	0.013451	0.009366	-0.005637	-0.190547	-0.017707	0.010136	0.016085	0.044394	-0.027169	0.014411	0.008583	0.198792	-0.017374	0.001343	-0.027165	0.023730	-0.004427	0.015449	0.000064	-0.106721	-0.011156	0.003572	0.001603	-0.189692	0.160243	-0.029278	-0.026405	-0.015251	-0.013920	-0.003291	0.019450	-0.161709	
P6216	0.126930	-0.048141	-0.006544	-0.059660	-0.051833	-0.117194	-0.087334	-0.087328	-0.104809	0.155292	-0.091533	0.081865	-0.009591	-0.005111	0.126539	-0.119353	-0.107838	0.141691	0.075072	0.057940	-0.137078	0.129566	0.145183	0.152656	-0.099023	-0.131058	-0.091572	0.071425	0.115375	0.104125	0.075872	0.107050	0.074471	0.107850	-0.074419	-0.070753	0.033684	-0.123621	-0.143881	0.030188	-0.059456	0.108566	-0.094462	0.116228	-0.114600	0.102829	0.077249	0.082486	-0.118835	-0.067753	0.049368	-0.119314	-0.047090	-0.073898	0.123894	0.123353	0.025536	-0.109047	-0.039089	0.094753	0.042993	0.092798	-0.105089	-0.102845	0.039535	-0.065665	-0.072518	0.006984	-0.130472	-0.049527	-0.122425	-0.121395	0.034350	-0.075975	0.099965	0.124070	-0.140553	0.097615	0.180208	0.144210	0.068130	-0.087280	-0.004132	0.107827	0.117880	-0.112724	-0.080085	0.146815	0.013988	-0.004557	-0.083065	0.108583	0.131713	-0.076434	0.131042	0.166988	0.136853	0.062477	-0.081507	-0.109877	
P197	-0.006357	0.001089	-0.000540	0.010515	0.009605	-0.000779	0.005039	-0.000684	0.006649	-0.002404	0.003450	-0.001592	0.006254	-0.005027	-0.012449	-0.013034	0.010406	-0.004855	-0.002470	0.000060	0.002380	-0.011472	0.006479	0.003926	-0.002905	-0.005014	-0.007679	0.001499	0.008871	-0.004452	0.008694	-0.007379	0.002776	-0.001106	0.004187	0.000866	-0.006981	0.004083	0.001550	-0.002532	0.011771	0.004406	0.001403	-0.008004	-0.002978	-0.009775	-0.004839	0.001378	0.003787	0.002005	-0.000713	-0.000358	-0.002587	-0.006562	0.012046	0.003995	-0.007962	0.000528	-0.002846	0.004812	0.001340	-0.003168	0.000813	0.004102	-0.002952	0.009304	-0.003938	-0.005987	-0.009346	0.008242	0.004481	0.003331	0.008218	0.004811	0.002291	0.001192	-0.000032	-0.008775	0.005133	0.002363	-0.007561	-0.005776	-0.004532	-0.001699	0.013416	-0.004841	-0.002615	0.009380	-0.000151	0.001880	-0.007871	-0.004969	0.000450	-0.001437	0.001029	-0.003068	0.001258	-0.005277	-0.006232	-0.002541	
P421	0.106723	0.130343	-0.012714	-0.030335	0.107270	0.158648	-0.098196	0.177021	-0.115332	-0.105816	0.033926	0.056500	-0.053328	-0.061308	-0.113347	-0.045150	0.116231	0.109937	0.092634	0.130815	0.073266	-0.131885	-0.094959	-0.148366	0.018440	-0.037316	0.028871	-0.088296	0.071251	0.081737	0.100347	-0.060007	-0.153166	0.089641	0.030944	0.113762	-0.067341	-0.073884	0.159631	-0.117153	-0.039361	-0.069072	-0.059271	-0.097285	0.151391	-0.107499	0.156465	0.035273	-0.117240	0.033006	-0.087643	0.053112	-0.006445	0.057515	-0.105692	-0.060177	0.081431	-0.082017	-0.124135	0.018894	0.136721	0.020215	0.123911	-0.091918	0.059782	0.119915	0.068663	-0.028834	0.095553	0.100426	0.130748	0.144286	-0.119091	-0.146464	0.134700	0.104061	0.153023	-0.154546	0.006319	-0.095201	-0.122544	-0.113843	-0.118356	0.062485	0.084677	0.071615	-0.106609	-0.114517	0.130778	0.101853	-0.070717	-0.107624	0.092195	-0.083620	0.151265	0.134136	0.075000	0.014703	0.017167	-0.127477	
P127	-0.098347	-0.176608	0.008681	-0.002747	-0.101726	-0.199214	-0.012843	-0.180835	-0.000679	0.027287	0.133808	0.009111	0.046570	-0.198144	-0.170441	-0.000301	0.113108	0.094977	0.086487	-0.031321	-0.009398	-0.093822	-0.013249	0.199111	-0.098847	-0.112168	-0.020526	0.077559	0.164580	0.008169	-0.133692	0.031984	0.167929	0.058461	0.002441	0.154893	-0.146663	-0.017126	-0.209815	-0.191794	0.140322	-0.009340	-0.133971	0.019874	-0.195493	-0.022721	-0.151515	0.006772	-0.064322	-0.062896	-0.241437	0.001649	0.025920	0.006375	0.093056	0.035406	0.007652	-0.043058	-0.022275	-0.009340	-0.006916	0.029346	0.083253	0.045164	0.031192	0.145182	-0.085268	-0.038518	-0.172121	-0.031728	-0.034525	-0.036753	0.009848	0.047048	-0.109141	-0.017801	-0.030784	0.190633	0.017358	0.116623	0.034987	-0.159155	0.027920	0.023889	0.012721	-0.057529	-0.024772	0.168687	-0.184915	-0.023462	0.037286	0.110069	0.107947	-0.026059	0.064845	-0.035115	0.006285	-0.019913	-0.017754	-0.157586	
P25	0.019190	-0.003881	0.004404	-0.002679	0.010587	0.006955	0.016877	0.001937	-0.006976	-0.004388	0.007776	-0.000905	-0.006172	-0.011372	-0.015872	0.005148	-0.014676	-0.027256	-0.001478	0.010414	0.014808	-0.009331	-0.015933	-0.023871	0.014750	-0.010909	0.000615	-0.006853	-0.000797	-0.019326	0.005103	-0.007258	0.010448	0.009259	0.001779	-0.023500	0.017027	0.000187	0.013294	0.028721	-0.004001	0.009857	0.025892	0.019680	0.014774	-0.019354	0.006619	-0.012632	0.007510	0.014869	0.000604	0.022018	0.008244	0.002859	-0.006108	0.004817	-0.007989	-0.002679	-0.015996	-0.000984	0.008478	0.015019	-0.011411	-0.007929	-0.000574	0.019284	-0.009481	-0.009687	0.018338	-0.010895	-0.003934	0.011942	-0.004392	0.006428	0.017953	0.001546	-0.017179	-0.003235	0.007311	0.022695	0.002235	-0.019055	-0.012650	-0.006529	-0.018131	-0.001654	-0.015060	-0.002193	-0.005619	-0.005621	0.010947	0.001663	0.010880	-0.015464	-0.002586	0.013395	0.016771	0.001178	0.005542	-0.019623	
P22	-0.012809	-0.009443	-0.014469	-0.014450	0.003638	-0.028505	-0.010530	-0.000171	-0.004649	-0.019589	0.011411	-0.005777	-0.014814	0.006109	0.009134	-0.019668	-0.007538	0.006772	0.016846	0.015868	0.018501	-0.006170	0.012011	0.005095	-0.019919	0.004631	-0.010949	0.013074	0.001638	0.006954	-0.017579	0.006357	-0.002579	0.003397	0.008920	0.006862	0.001123	0.010785	-0.014622	0.007150	0.006926	-0.006341	-0.013102	-0.000424	-0.003797	0.004773	0.014539	0.003977	-0.028601	0.006730	0.001106	-0.007417	-0.014843	-0.007003	0.023733	-0.007162	-0.000409	0.008776	0.002891	-0.007113	-0.019860	-0.007578	0.014905	-0.002051	0.000217	0.007571	-0.008420	0.018985	-0.010156	0.000824	0.014467	0.006352	0.003280	-0.007858	-0.020910	0.032106	0.032591	0.002557	0.002904	0.009513	0.008608	0.020769	-0.002032	-0.004742	0.006852	0.003480	0.013750	0.005727	0.014753	-0.002267	-0.006409	-0.021122	0.000226	0.002592	0.020399	-0.019332	-0.000413	0.003859	-0.005934	0.016009	
P97	-0.123565	0.099332	-0.032146	-0.098301	-0.032349	-0.212506	-0.000565	0.052980	0.027403	0.085674	-0.032954	0.057748	-0.000741	0.101574	-0.116138	-0.009816	-0.134136	-0.167615	0.054245	-0.084442	-0.050483	0.193276	-0.101534	0.135502	-0.029536	-0.025225	0.008751	-0.123030	0.006929	0.129816	0.089727	-0.017725	-0.169917	0.031014	0.137993	-0.082913	-0.063261	-0.195768	0.129447	-0.097208	-0.120920	-0.079233	0.061010	0.044010	0.191959	0.096292	-0.059615	-0.064429	-0.086633	0.079696	0.063638	-0.084212	-0.019664	-0.061065	-0.089499	-0.112644	0.016803	-0.067129	0.098716	-0.082772	-0.200323	0.143062	-0.126068	-0.001947	-0.142373	0.048644	-0.067572	-0.193028	0.041234	-0.153486	0.120929	-0.155855	0.098160	0.116927	-0.035594	-0.090871	-0.206948	0.046955	0.021623	0.056145	0.049207	-0.052673	-0.084520	0.053126	-0.013353	0.088747	-0.156790	0.003881	-0.077136	0.083874	-0.008263	0.006896	-0.079592	-0.180241	0.013902	0.096672	0.055020	-0.065124	-0.098388	0.114586	
P53	-0.033770	0.140899	0.023715	-0.215727	0.006611	-0.127094	0.022357	-0.049464	0.010184	0.127181	0.042780	0.042710	0.040446	0.083391	-0.106398	0.075339	-0.122932	-0.208277	0.046007	-0.011091	0.032959	-0.014584	-0.092574	0.072113	-0.007179	0.023933	-0.024827	-0.042472	-0.040478	0.002752	0.162172	-0.012239	-0.203056	-0.048977	0.012631	0.044308	-0.042328	-0.026626	0.083674	0.074162	-0.110484	-0.083244	0.094331	0.040734	-0.012301	0.011424	-0.027477	0.003948	-0.035753	0.007549	0.067435	0.048535	-0.006509	-0.004592	-0.170247	0.032907	0.008162	0.030852	0.050259	0.044761	-0.190806	0.148508	-0.084129	0.127569	-0.004554	-0.190195	-0.084434	-0.175028	0.023327	-0.121266	0.004455	-0.017542	0.064064	-0.038934	-0.136177	-0.059396	-0.135876	0.082839	0.046787	-0.140597	-0.137679	-0.027260	0.057335	-0.004149	0.092276	-0.027827	-0.218793	0.073206	-0.069339	-0.091566	-0.053413	-0.031122	-0.019987	0.033144	-0.051746	-0.041706	0.038779	-0.028155	-0.087290	0.240528	
P1290	0.026329	-0.009979	-0.012368	-0.010335	-0.005746	-0.034638	-0.006812	-0.010119	0.004893	-0.021389	0.009331	-0.015594	0.010635	0.000925	0.007444	0.007650	-0.021298	0.011087	0.022870	0.036418	0.000485	-0.014231	0.001598	0.047380	-0.031282	0.046373	-0.003076	0.027024	-0.000275	0.012594	-0.026216	0.019774	0.002303	-0.018302	0.011844	0.004017	-0.005501	0.001619	-0.016840	-0.015881	0.011062	0.026667	0.008595	0.003598	-0.042380	-0.015341	-0.009906	-0.003960	-0.034137	-0.029681	0.020919	0.015251	-0.019858	0.001788	-0.004855	-0.008257	0.004191	0.029621	-0.077307	-0.030357	0.023438	0.004159	0.007565	-0.009484	-0.023311	-0.006388	0.000810	0.015413	-0.000130	-0.004943	-0.004810	0.002807	-0.002715	0.008795	0.008437	0.005813	0.010082	0.090083	-0.005727	0.014141	-0.002940	-0.044108	-0.017106	-0.017117	0.052337	0.001475	0.055273	0.026417	0.019216	0.031534	0.017955	-0.013689	-0.002363	-0.009823	0.013454	0.009734	-0.011234	-0.031682	-0.000466	-0.037880	
P1001	0.059745	-0.144032	0.121017	-0.168592	0.032539	-0.112018	0.083977	-0.112836	0.142701	0.021604	0.009263	0.004907	0.103596	-0.040777	-0.121133	0.062932	0.041889	0.165550	0.091014	-0.002094	0.013858	0.064653	-0.031048	0.175780	0.013097	-0.125969	-0.002601	0.058569	0.134920	-0.020595	-0.156146	-0.129393	0.129096	-0.083114	0.115439	0.073480	-0.039460	-0.004264	-0.186344	0.029271	0.107186	0.151212	-0.112097	-0.153496	-0.072003	0.085742	-0.122590	0.139831	0.120494	0.086672	-0.106690	0.133012	0.094236	0.126368	-0.015694	0.003755	-0.085413	0.098032	0.022899	-0.059805	-0.008863	0.039583	0.108970	0.058160	0.106189	-0.234320	-0.014197	-0.033081	-0.126628	0.075578	-0.028272	-0.091134	0.033229	0.023966	0.078720	-0.023021	0.009637	0.217810	-0.015836	0.053354	0.026043	-0.151636	0.127496	0.056811	0.068861	0.051045	0.030381	0.121601	-0.101577	-0.038701	-0.159117	0.090723	-0.045611	0.010443	-0.200009	-0.203257	-0.000092	-0.008502	-0.109133	0.132459	
P179	-0.008884	-0.105315	0.027524	0.192022	-0.003354	0.003094	-0.170825	0.010411	-0.055409	-0.038237	0.272327	0.003081	0.015364	0.048787	0.056401	-0.134923	-0.079594	-0.042622	0.013825	0.190057	-0.040081	-0.005258	-0.008572	0.064783	0.016230	0.004774	0.013049	-0.010809	0.133758	-0.027002	-0.110480	0.004014	-0.137105	-0.031286	0.011009	0.000490	-0.025355	-0.026372	0.004210	-0.046211	0.092199	0.012816	-0.007454	-0.061529	0.025117	-0.123751	0.008436	0.041510	-0.160082	-0.117621	0.077406	0.069185	-0.009766	0.003674	0.203464	0.007754	0.026517	0.155992	0.022981	-0.007282	-0.000211	0.026468	-0.105021	0.068084	0.000846	0.153008	-0.018382	0.019145	0.009180	0.135470	-0.026601	0.220291	0.016508	0.021392	-0.085129	0.061055	-0.030708	-0.028450	0.011404	0.109263	-0.164314	-0.000467	-0.004723	0.034771	0.009651	0.006548	-0.010141	-0.068726	0.043995	-0.028824	0.008453	-0.016452	0.009315	0.017498	-0.015338	-0.027730	0.010309	-0.054131	0.028638	-0.065196	
P155	-0.007547	-0.000979	-0.006285	-0.005794	0.008224	-0.005678	0.005338	-0.001739	0.003589	-0.008472	-0.000731	-0.012228	-0.001688	0.006581	0.004617	0.003657	-0.009797	0.003088	0.001657	-0.007739	0.004762	-0.001088	0.008921	0.001772	-0.002991	-0.002298	0.006338	0.004471	-0.012903	-0.004850	-0.001111	-0.007068	0.011439	-0.014427	-0.007793	-0.002848	0.001777	0.006941	-0.005376	-0.004752	-0.005625	-0.002080	0.000291	0.002332	0.000339	0.004302	-0.001649	-0.007982	-0.003483	0.000129	0.001787	-0.000554	-0.009288	-0.002367	-0.008463	0.005772	-0.004374	0.002470	-0.001362	0.007871	0.008765	0.001865	0.005937	-0.000798	-0.000540	-0.001771	-0.000189	-0.000201	-0.002324	0.003789	0.005619	0.008050	-0.000063	0.004324	0.002417	0.008029	-0.005180	0.003501	-0.004675	-0.001200	0.002100	-0.003279	-0.004793	0.001155	0.007087	0.001496	0.003582	-0.001283	0.007188	0.002873	-0.011560	-0.007125	-0.004356	-0.004671	-0.000426	0.006690	-0.001409	0.009683	-0.010223	-0.009382	
P674	0.025447	-0.158626	0.034880	0.173108	0.078501	0.147030	0.174222	-0.003390	0.044812	0.058104	0.152805	0.107535	0.098517	-0.109460	-0.046397	-0.160747	0.085990	0.165788	-0.124541	0.043593	-0.018474	-0.145178	-0.009622	0.103835	-0.132687	-0.131629	0.078584	-0.015609	0.115611	0.029550	-0.111955	0.089492	0.096948	0.093767	-0.070298	0.045354	-0.039544	-0.137226	-0.117446	0.062421	-0.076113	0.041933	-0.130754	0.010998	-0.158140	0.079593	0.083681	0.105819	0.141323	0.036651	0.069688	-0.156002	0.074793	0.082212	0.134543	0.082239	0.019948	0.137056	0.033239	-0.045233	-0.005367	-0.157458	0.121125	-0.154311	0.022075	-0.121054	-0.033533	-0.052130	0.052056	-0.012276	-0.096504	-0.131659	-0.091739	-0.075232	-0.107459	-0.175572	0.127067	-0.038052	-0.146771	-0.124306	0.167298	-0.146161	0.106475	0.063950	0.007974	0.015763	0.133714	-0.092696	0.110066	0.051262	-0.086399	0.090233	-0.094555	0.101037	-0.031913	0.086632	-0.009330	-0.094548	0.050908	-0.049876	
P1884	-0.080933	-0.133805	0.019476	-0.096897	-0.067481	-0.152835	-0.068596	-0.125514	-0.119151	-0.070077	-0.103527	-0.031724	-0.095798	-0.052156	-0.095233	0.076000	-0.166351	-0.068168	0.066819	0.062789	0.013045	0.137499	0.064681	0.115314	-0.033008	0.108388	-0.137442	-0.122901	-0.062162	-0.005315	-0.128593	-0.049604	-0.039863	-0.118979	0.144944	-0.042847	-0.032835	-0.059864	-0.144822	-0.070682	-0.061288	-0.024100	0.100366	-0.084940	0.133350	-0.135532	0.171712	-0.041795	-0.125025	0.071272	-0.035197	0.095727	-0.019388	-0.009804	0.076030	-0.130962	0.059740	0.038457	0.159477	0.070972	-0.107191	0.159662	0.008883	0.127543	-0.147793	0.120269	-0.067602	0.056623	-0.077865	-0.049868	0.159411	-0.051562	0.147550	0.040865	0.065602	-0.017395	-0.209619	-0.060239	0.128932	0.138726	-0.084163	-0.012522	-0.171260	-0.012471	-0.057380	-0.049875	-0.121746	0.114134	-0.123171	-0.080174	-0.160738	-0.113951	-0.101103	-0.218575	-0.008978	-0.146516	0.047205	-0.034549	0.048940	-0.053954	
P2522	0.108786	-0.008509	-0.009765	0.001943	-0.077337	0.168470	0.102456	0.159404	-0.068039	-0.017988	-0.102959	-0.135918	0.088054	-0.155078	0.070677	-0.104625	0.002389	-0.126021	0.024786	0.074928	0.105202	-0.032732	0.004614	0.181749	0.051669	0.010119	-0.115207	0.099735	0.143143	0.116911	0.022806	-0.086130	-0.094058	-0.053073	0.036729	-0.033538	-0.038937	-0.134604	0.052514	-0.132812	-0.123142	-0.078202	0.098231	-0.176816	0.174213	-0.011210	0.094790	0.032547	-0.175546	0.087138	0.163408	-0.009581	-0.117552	-0.093641	0.057528	-0.050166	0.028323	-0.116580	0.123036	0.055088	-0.133930	0.038913	0.115260	0.037105	-0.093177	-0.159550	-0.203293	0.129396	-0.094547	-0.105889	0.058665	-0.130328	0.127282	-0.056493	-0.039544	0.157429	-0.002566	-0.075509	-0.052544	-0.123875	-0.155448	0.102854	-0.156951	0.057396	-0.054704	-0.052375	-0.099007	0.091892	-0.124352	0.087369	0.022481	-0.052923	-0.040565	0.112272	-0.180014	0.082765	0.037905	-0.021471	0.109534	-0.024077	
P264	-0.023920	-0.142645	-0.054467	-0.020319	-0.125939	0.078809	-0.039939	-0.037023	0.013880	0.054050	0.066954	0.034927	0.038603	0.114255	-0.153327	0.005048	-0.120934	0.144622	-0.035825	0.048336	-0.063595	0.187717	-0.139323	0.173747	0.117923	0.164201	0.027508	-0.032121	-0.075867	0.063510	-0.200093	0.067468	-0.143708	0.062575	0.010380	-0.014860	-0.188853	-0.125132	-0.143520	-0.008003	0.134909	-0.017607	0.121257	0.146667	-0.162088	0.071686	0.176489	-0.028191	0.089227	0.064195	0.060586	-0.048299	-0.005972	0.005024	-0.095685	-0.085079	0.074849	0.084775	-0.121370	-0.109319	-0.170610	-0.079231	-0.026544	-0.111200	-0.046490	-0.117079	0.013758	0.003608	0.116489	0.022799	-0.059012	0.171973	0.005183	0.033717	-0.093304	-0.134186	0.136669	-0.054340	-0.015780	0.199582	0.147381	-0.023709	-0.063084	0.039869	-0.043621	-0.104384	-0.020584	-0.114579	0.160862	-0.163900	-0.141047	-0.077659	0.027783	-0.088663	-0.131087	-0.119665	-0.006467	-0.027546	-0.045311	0.065440	
P175	-0.033511	0.139173	0.014069	0.171970	-0.060694	-0.002863	-0.025447	-0.006853	0.076160	0.033566	-0.094626	-0.013456	-0.034256	-0.240452	0.041552	0.049650	-0.131938	0.065438	-0.005509	0.115228	0.013730	-0.040093	0.080953	-0.108061	-0.042596	0.006423	0.043751	-0.026948	-0.008174	0.024764	-0.265766	0.092757	0.224926	0.075829	-0.036563	-0.040914	-0.105153	0.007440	-0.017813	-0.021731	-0.061320	0.039704	0.001806	-0.008513	-0.278465	-0.056401	-0.073631	-0.018983	-0.083898	-0.011146	0.044366	0.004251	0.027633	0.037431	-0.009208	-0.002558	0.117882	0.106013	-0.121165	0.049171	0.086031	-0.106332	-0.058046	0.090345	0.062015	0.066007	0.020347	0.002424	0.068431	0.015058	-0.045438	0.100296	0.019077	0.023859	-0.036035	0.058876	0.092505	-0.035048	-0.055935	0.220756	0.221514	0.031389	-0.005374	-0.029442	0.036663	0.054089	-0.080970	-0.065264	-0.065865	0.044304	0.077242	0.014363	0.090342	-0.085017	0.087988	-0.042152	-0.028277	-0.000800	-0.027875	0.000144	
P410	-0.057309	0.010216	-0.044774	0.060898	0.042377	-0.217965	-0.087218	0.090015	0.002682	0.123182	-0.081215	-0.001865	0.072762	-0.057675	-0.190451	-0.019612	-0.112054	-0.169720	-0.172067	-0.106043	-0.000901	0.161572	-0.079491	0.167258	0.024683	-0.059400	-0.119265	-0.081798	-0.079924	0.138888	0.158707	0.041749	-0.083355	-0.116169	-0.002940	-0.091492	0.044882	-0.185548	0.022309	-0.060613	-0.044643	-0.008870	-0.028393	0.028980	0.024553	0.091794	-0.021773	-0.036508	0.011925	0.158136	-0.133787	-0.003423	-0.059909	0.005420	-0.057136	-0.166222	0.004996	-0.109905	0.179692	-0.129797	-0.210098	0.055247	0.001918	-0.043252	-0.157677	0.058257	-0.111847	-0.001357	-0.103049	-0.127378	-0.123527	0.031917	0.104850	0.049063	-0.044200	-0.073914	-0.170253	-0.082809	0.103635	-0.014360	0.084799	-0.068475	-0.048810	0.071348	0.028088	-0.109823	-0.180619	0.068921	-0.114822	0.071432	-0.070261	0.023058	-0.114813	-0.190767	0.111891	-0.026146	0.054859	-0.145429	-0.082869	0.101894	
P241	-0.013848	0.110366	-0.007020	-0.040299	0.035215	0.002447	0.000895	0.004903	0.006875	0.192103	0.019956	0.028895	0.041424	0.011820	-0.236363	0.006281	-0.105593	-0.203073	-0.058672	-0.049893	-0.144064	0.182304	-0.033959	0.238589	-0.057381	-0.027837	-0.020622	-0.046456	-0.024697	0.121073	-0.050043	-0.035615	0.071440	-0.073912	-0.001040	-0.042502	-0.077827	-0.035060	-0.137270	0.017613	0.215053	-0.046236	-0.004762	0.140136	0.075611	-0.010357	0.061492	0.003253	-0.100505	0.096287	0.003815	0.069590	-0.020061	-0.016470	-0.014009	-0.039142	-0.005426	-0.132849	-0.033822	-0.142350	-0.198315	0.128250	-0.127017	0.203074	-0.026158	0.140330	-0.031270	-0.117357	-0.142978	-0.102343	-0.116671	-0.038687	0.082364	0.043900	-0.030227	-0.079459	-0.167148	0.046233	0.101545	0.041475	0.057271	-0.146919	-0.067040	-0.046136	0.077806	-0.078831	-0.005354	0.221402	-0.224832	0.117285	0.023727	0.001043	-0.081515	-0.167041	0.070585	-0.094304	0.007540	-0.126248	0.041223	-0.091170	
P607	0.084051	0.135125	0.047105	0.116422	-0.032262	0.042487	0.045657	0.022895	0.018504	0.137928	-0.039713	-0.028822	-0.005323	0.067168	-0.114745	0.010906	-0.144502	-0.114663	0.093268	0.055124	-0.138820	0.080152	-0.081208	0.177147	0.010525	-0.130903	0.031503	0.019505	-0.013060	0.107547	-0.001919	-0.081088	-0.046515	-0.084613	0.056148	-0.052461	0.089990	0.008229	0.109787	-0.106569	0.067431	-0.029589	0.053709	-0.135827	0.122991	0.084848	-0.074066	0.029258	0.089680	0.172233	-0.163250	-0.083110	-0.057178	0.055229	-0.037262	-0.015925	0.068880	-0.121364	0.180589	-0.178028	-0.209673	0.168761	-0.104252	0.180575	-0.181980	0.057966	-0.082240	-0.014469	-0.081050	-0.056809	-0.035147	0.008110	-0.088504	0.193638	-0.042220	0.069451	-0.068863	-0.066685	0.094648	0.011437	-0.090344	-0.145968	-0.108723	0.164420	-0.029368	-0.063336	-0.115440	0.227476	-0.089834	-0.057655	0.077577	-0.082665	0.076708	-0.185998	0.087872	-0.036658	0.114314	-0.128749	0.012931	0.134470	
